%YAML:1.0
---
opencv_ml_svm:
   format: 3
   svmType: EPS_SVR
   kernel:
      type: LINEAR
   C: 1.0000000000000000e-02
   p: 1.0000000000000001e-01
   term_criteria: { epsilon:1.0000000000000000e-03, iterations:1000 }
   var_count: 792
   sv_total: 1
   support_vectors:
      - [ -8.10635462e-03, -1.97188146e-02, -1.21532623e-02,
          -3.22612585e-03, 6.66275015e-03, 2.84859282e-03,
          1.54260043e-02, 1.52902408e-02, 6.22367579e-03, 4.90702875e-03,
          -1.01685179e-02, -2.36609462e-03, 4.33615968e-03,
          3.85456625e-03, 1.01199734e-03, 1.20720556e-02, 1.97995137e-02,
          1.43112624e-02, 1.33961695e-03, -9.14264005e-03,
          -1.62325241e-03, -2.61647790e-03, 8.19219369e-03,
          -6.22412097e-03, -2.99352035e-03, -1.09103404e-03,
          3.39530455e-03, 5.47804590e-03, -1.12379938e-02,
          -1.22517161e-02, -6.68639224e-03, 5.00051025e-03,
          -2.75525381e-03, 9.44619253e-03, 5.06516173e-03,
          1.08731091e-02, 1.36872167e-02, -2.06170511e-03,
          4.67290683e-03, 2.39556236e-03, 3.68139590e-03, 2.18411116e-03,
          9.05294064e-03, 1.06140254e-02, 1.50985932e-02, 1.60295684e-02,
          6.45491621e-03, 9.43167694e-03, -2.87685008e-03,
          -6.29344070e-03, -1.40117630e-02, -8.16437940e-04,
          1.04285637e-02, 1.12274196e-02, 3.41929216e-03,
          -1.17708035e-02, -1.09048327e-02, -8.21508374e-03,
          1.94293866e-03, -3.29796993e-03, 6.73713163e-03,
          1.36283471e-03, 5.19562466e-03, 3.59836128e-03,
          -7.73186749e-03, -5.08852163e-03, -1.26837650e-02,
          -1.19266324e-02, -2.36430354e-02, -1.01092523e-02,
          -6.42526429e-03, 3.05813132e-03, -1.86301358e-02,
          -1.40632521e-02, -5.32304170e-03, 2.51883268e-03,
          -2.25731800e-03, -7.83236232e-03, -1.71917528e-02,
          -1.30705703e-02, -1.84870418e-02, -2.06692480e-02,
          -2.29179785e-02, -1.83912143e-02, -5.09943813e-03,
          -8.65221862e-03, -5.03698597e-03, -3.84345837e-03,
          -1.36164529e-02, -2.06182636e-02, 4.11113612e-02,
          2.91843954e-02, 3.39535344e-03, 3.13858408e-03,
          -7.21002184e-03, -1.10456487e-02, -1.60833988e-02,
          -8.07844661e-03, 1.66715700e-02, 3.52561325e-02,
          1.33732902e-02, -8.97173584e-03, -4.64712875e-03,
          -1.45971384e-02, -6.87162345e-03, -5.62356692e-03,
          9.58860852e-03, 2.99045872e-02, -1.97379552e-02,
          -2.04609968e-02, -1.80167835e-02, -6.35510264e-03,
          -8.88757873e-03, -5.38809551e-03, -6.33702660e-03,
          -1.72167532e-02, -2.50819456e-02, -1.41055258e-02,
          -1.20868729e-02, -1.19467182e-02, -1.09009072e-02,
          -1.81436427e-02, -1.92500111e-02, -2.01811418e-02,
          -2.45508812e-02, -2.23385971e-02, 4.34909910e-02,
          -2.36707111e-03, -1.42094903e-02, -9.61491838e-03,
          -1.98227093e-02, -1.13911415e-02, -1.09981401e-02,
          8.37894622e-03, 3.45853604e-02, 3.89896668e-02, 3.63884005e-03,
          -9.25284158e-03, -9.31849238e-03, -2.29377896e-02,
          -2.17738710e-02, -1.90536678e-02, 1.83848534e-02,
          3.52084935e-02, 2.24436298e-02, 2.25055926e-02,
          -6.36591250e-03, -3.76967783e-03, -1.87920071e-02,
          -1.49672357e-02, -1.73853245e-02, -1.83408186e-02,
          -1.15149692e-02, 3.59303541e-02, 7.35573878e-04,
          -1.82582308e-02, -1.38583677e-02, -2.72484142e-02,
          -1.30169196e-02, -1.67424530e-02, -1.83337852e-02,
          2.16620881e-02, 3.56228761e-02, 4.03084606e-02,
          -3.36662983e-03, -9.81611386e-03, -1.66663341e-02,
          -1.32475356e-02, -1.20606171e-02, -3.21460664e-02,
          -1.54214259e-02, 3.12064737e-02, 2.64484454e-02,
          -2.07115281e-02, -1.74142383e-02, -2.77258679e-02,
          -1.71870403e-02, -2.73033548e-02, -3.60637680e-02,
          1.06088389e-02, 2.84585599e-02, -1.42142707e-02,
          -1.90891307e-02, -1.52427573e-02, -2.94117071e-02,
          -1.63974408e-02, -1.72392391e-02, -1.38237169e-02,
          3.12500410e-02, 7.06567243e-03, -1.33042624e-02,
          -1.38169071e-02, -1.11463862e-02, -3.16710733e-02,
          -2.25060433e-02, -1.98305715e-02, 4.54357639e-03,
          3.60383391e-02, 3.14268991e-02, -1.76843535e-02,
          -2.02946514e-02, -1.88865606e-02, -3.02084051e-02,
          -2.01081354e-02, -2.49738991e-02, -2.03078929e-02,
          1.87939592e-02, 3.51213687e-03, -2.30240375e-02,
          -1.67475827e-02, -1.37890633e-02, -2.69696172e-02,
          -1.93740204e-02, -8.15425813e-03, 2.76852455e-02,
          1.93769019e-02, 3.54243293e-02, 4.13467772e-02, 5.12854429e-03,
          -1.05464868e-02, -1.84928179e-02, -1.77414380e-02,
          -1.54504552e-02, -2.49558873e-02, -2.32194830e-02,
          3.82216051e-02, 3.51016037e-02, -9.78865661e-03,
          -1.13901151e-02, -3.18452828e-02, -2.66973935e-02,
          -2.32042298e-02, -2.65230723e-02, 2.05956474e-02,
          3.24306637e-02, 4.06983495e-02, 2.24125665e-02,
          -2.39699893e-02, -4.25401591e-02, -3.53189036e-02,
          -3.22739258e-02, -2.92243399e-02, -2.83328202e-02,
          3.42770144e-02, 3.60040329e-02, -6.93563838e-03,
          -2.30296124e-02, -4.60008830e-02, -3.53318267e-02,
          -3.00540328e-02, -2.85280291e-02, 1.90393962e-02,
          3.62274759e-02, -2.31006392e-03, -1.08086206e-02,
          -1.09722037e-02, -2.77389698e-02, -2.02107187e-02,
          -1.92667767e-02, -7.79538928e-03, 2.24508941e-02,
          -4.54100827e-03, -1.66709609e-02, -1.36247342e-02,
          -1.00432253e-02, -1.69765055e-02, -1.25976205e-02,
          4.36550472e-03, 3.54537964e-02, 2.07621027e-02, 3.63967828e-02,
          -9.43706953e-04, -1.49250748e-02, -1.98138803e-02,
          -4.55888025e-02, -3.34747545e-02, -2.01450456e-02,
          1.06733460e-02, 2.64041126e-02, -1.53052723e-02,
          -2.83310805e-02, -2.70117167e-02, -2.74953824e-02,
          -3.44127491e-02, -2.10751537e-02, -3.30729620e-03,
          2.37332936e-02, 2.04358865e-02, 3.88567112e-02, 4.59245555e-02,
          4.44714203e-02, -2.06246004e-02, -3.95243168e-02,
          -2.76761074e-02, -2.41230894e-02, -1.44024026e-02,
          -8.79388675e-03, 4.19406779e-02, 4.21657003e-02,
          6.61596749e-03, -2.43247915e-02, -4.13068384e-02,
          -3.04968059e-02, -2.55618040e-02, -1.29612982e-02,
          3.60297337e-02, -1.06743267e-02, 3.39910164e-02,
          3.66712920e-02, 3.67384730e-03, -2.66161487e-02,
          -2.40350366e-02, -2.41775662e-02, -1.49269402e-02,
          -1.49614261e-02, -5.03255706e-03, 6.68294448e-03,
          -8.45564343e-03, -2.40133610e-02, -3.11540496e-02,
          -2.86572948e-02, -3.06094158e-02, -2.02681366e-02,
          -1.26925018e-02, 4.49373275e-02, 7.95703754e-03,
          -5.25922561e-03, -1.38593139e-02, -3.30396630e-02,
          -2.89749913e-02, -1.40653327e-02, 2.92388219e-02,
          4.00402620e-02, -6.23155385e-04, -1.47133805e-02,
          -1.46020129e-02, -2.35839970e-02, -2.71558892e-02,
          -9.24194604e-03, 2.42673308e-02, 2.81880237e-02,
          3.05260140e-02, 1.51986629e-03, -1.95488939e-03,
          -7.70076644e-03, -1.82153769e-02, -2.00951975e-02,
          -2.50504538e-02, -2.75703240e-02, -1.09021170e-02,
          1.26417482e-03, -9.23433248e-03, -7.25452602e-03,
          -1.76730212e-02, -2.20109038e-02, -1.11972252e-02,
          9.49173293e-04, 1.93264484e-02, 1.66486837e-02,
          -7.88544305e-03, -1.21256085e-02, -2.72535114e-03,
          1.50757870e-02, 1.57364123e-02, 4.75425180e-03,
          -5.67848329e-03, -1.64873321e-02, -8.61649122e-03,
          -6.62923465e-03, -1.20051596e-02, 1.02137094e-02,
          1.67317204e-02, -1.21814653e-03, -1.10983606e-02,
          -1.52201261e-02, -1.80215705e-02, -1.53187951e-02,
          -1.05212973e-02, 3.59103829e-03, -9.60869901e-03,
          -1.94089487e-02, -7.34081864e-03, 2.60018138e-03,
          1.90410744e-02, 1.95894986e-02, 7.66073680e-03, 1.49949444e-02,
          1.03777060e-02, 1.53785804e-02, 1.38214296e-02,
          -1.72813120e-03, -1.59855913e-02, -1.15086678e-02,
          -1.03618084e-02, -6.72266120e-03, 1.23697883e-02,
          -9.78702493e-03, 1.43131912e-02, 1.89123023e-02,
          4.96583991e-03, 1.16487592e-02, -6.33863453e-03,
          -1.69083122e-02, -1.32773500e-02, -1.57330371e-02,
          -1.03200851e-02, -4.44711279e-03, -8.56895000e-03,
          1.02297803e-02, 1.96874719e-02, 9.98472609e-03,
          -4.06519230e-03, -8.21865816e-03, -1.30408835e-02,
          -6.36472600e-03, 2.09624916e-02, 1.79850999e-02,
          1.73606314e-02, 2.40097791e-02, -3.17087001e-03,
          -1.44837424e-02, -1.30699174e-02, -1.16725434e-02,
          -1.97580196e-02, -5.57403546e-03, 8.84095486e-03,
          2.16755662e-02, 1.77069139e-02, 3.47595220e-03,
          -1.57861095e-02, -1.08942222e-02, -2.21567191e-02,
          -5.43209538e-03, -1.52116343e-02, -2.25458983e-02,
          -2.67802421e-02, -2.66012195e-02, 4.15983051e-03,
          3.58308107e-02, 2.75699496e-02, 6.83117518e-03, 1.28269298e-02,
          -3.15936445e-03, -1.78141892e-02, -2.74057016e-02,
          -2.89012585e-02, -2.22198591e-02, -9.32138786e-03,
          1.41978468e-04, 2.22074855e-02, -1.34113105e-02,
          -2.14205366e-02, -3.07564177e-02, -3.02532706e-02,
          -3.80598269e-02, -1.55459177e-02, 4.14118618e-02,
          4.31441441e-02, 3.72197814e-02, 3.02176848e-02,
          -1.38402293e-02, -2.86922324e-02, -3.39956023e-02,
          -3.94840576e-02, -2.35188268e-02, 4.48471634e-03,
          3.95242944e-02, 3.87047194e-02, 1.54395076e-03, 2.96137179e-03,
          -1.89108867e-02, -1.94603913e-02, -1.31601961e-02,
          -1.51470294e-02, -1.32800024e-02, -1.19212996e-02,
          -1.42737234e-03, -1.99429560e-02, 1.40789486e-02,
          1.73716843e-02, 2.37901509e-03, -3.60770174e-03,
          -1.80237647e-02, -1.47700505e-02, -1.36072859e-02,
          -2.51953602e-02, 3.66798230e-02, 3.03423274e-02,
          -2.28078812e-02, -3.14512029e-02, -3.46663930e-02,
          -1.54384691e-02, -8.65834393e-03, 2.49435590e-03,
          4.39402387e-02, 2.51609366e-02, 2.55697984e-02, 2.10908949e-02,
          -1.60354730e-02, -2.68480703e-02, -2.01061685e-02,
          -1.63658764e-02, -1.89942699e-02, -4.96211415e-03,
          -2.88556200e-02, -3.20405923e-02, -2.86551025e-02,
          -3.18298861e-02, -3.62863541e-02, -1.65586844e-02,
          1.49061605e-02, 4.70284745e-02, 2.37070285e-02, 2.28894819e-02,
          -2.48420853e-02, -2.84059718e-02, -3.37646268e-02,
          -4.05106284e-02, -1.75285470e-02, -5.77516109e-03,
          3.22910137e-02, 4.14179265e-02, -1.76605638e-02,
          -2.60050595e-02, -1.50466273e-02, -1.76495984e-02,
          -1.93689652e-02, -1.14052780e-02, 9.55055095e-03,
          4.09533903e-02, 3.63053083e-02, 1.94010101e-02,
          -2.96812821e-02, -2.47016679e-02, -2.68468298e-02,
          -3.20577733e-02, -1.37508968e-02, -1.31622227e-02,
          1.30696064e-02, 3.82206142e-02, 2.76292954e-02, 1.83942858e-02,
          -2.32646149e-02, -3.04106958e-02, -4.12757099e-02,
          -1.60194170e-02, -1.39018949e-02, -4.99238353e-03,
          3.85214835e-02, 1.59078874e-02, 2.70508882e-02,
          -7.52177322e-03, -1.96520332e-02, -2.87943613e-02,
          -2.02582106e-02, -2.10190807e-02, -2.35845651e-02,
          -1.80020165e-02, 1.69532634e-02, 5.59715461e-03,
          -2.06537545e-02, -2.11042259e-02, -3.17749642e-02,
          -1.27370078e-02, -1.26993628e-02, -8.20544548e-03,
          3.14886943e-02, 1.59929004e-02, 3.20125259e-02,
          -4.42374591e-03, -2.15595886e-02, -2.62134578e-02,
          -1.36078391e-02, -1.28766578e-02, -1.77610107e-02,
          -6.23244839e-03, -7.86377024e-03, -3.23001482e-02,
          -1.22735780e-02, -1.39426067e-02, -1.38018057e-02,
          -7.40055460e-03, -3.96639248e-03, 2.87895761e-02,
          4.14729640e-02, 1.65331252e-02, -4.35208604e-02,
          -2.34535020e-02, -1.62742231e-02, -2.39702314e-02,
          -1.65096354e-02, -2.26910897e-02, -4.85263439e-03,
          3.66016552e-02, -3.75704514e-03, -2.28643399e-02,
          -2.25250628e-02, -1.78431440e-02, -2.14564297e-02,
          -5.26781194e-03, -1.09246392e-02, 6.47453079e-03,
          4.55989279e-02, 1.91430300e-02, -3.01960986e-02,
          -2.17347834e-02, -1.78696457e-02, -2.67871693e-02,
          -1.60810780e-02, -2.27841083e-02, -7.03561772e-03,
          3.43613997e-02, 1.98166929e-02, -1.04232272e-02,
          -1.70371607e-02, -1.62681267e-02, -2.46045180e-02,
          -1.60041600e-02, -1.58092733e-02, -1.34109091e-02,
          3.14177722e-02, 2.15600207e-02, 3.65043022e-02,
          -6.78954273e-03, -2.56361067e-02, -2.80125532e-02,
          -1.22402320e-02, -1.19820777e-02, -1.81220938e-02,
          1.24536594e-02, 2.22523510e-02, -1.74535830e-02,
          -1.76430512e-02, -1.71975382e-02, -2.70406846e-02,
          -1.61697231e-02, -2.04591788e-02, -1.01471310e-02,
          3.14196534e-02, 2.24068444e-02, 1.30716767e-02,
          -1.97363943e-02, -3.23464386e-02, -3.44834030e-02,
          -1.22817801e-02, -1.35283116e-02, -1.48450714e-02,
          1.01884101e-02, 3.59428301e-02, -6.32358203e-03,
          -1.61325652e-02, -1.36922663e-02, -3.57311941e-03,
          -1.89421570e-03, -3.06430506e-03, 8.00944958e-03,
          5.10098860e-02, 3.58573794e-02, -6.41165115e-03,
          -5.70936780e-03, -8.19892157e-03, -9.60157905e-03,
          -8.67553987e-03, -1.25088356e-02, 6.55617006e-03,
          4.12219130e-02, -2.32024509e-02, -1.99330039e-02,
          -2.07252521e-02, -1.37409754e-02, 3.54746636e-03,
          2.99544161e-04, -4.72262828e-03, -1.79242566e-02,
          -2.10036114e-02, -2.29770001e-02, -1.81936100e-02,
          -6.92127272e-03, -6.07986934e-03, -1.73322880e-03,
          -7.68896192e-03, -1.52124539e-02, -2.26421710e-02,
          -2.25151107e-02, 3.30932699e-02, -4.42465162e-03,
          -4.45465557e-03, -4.38216841e-03, -3.44941462e-03,
          -7.29499385e-03, -8.05975869e-03, 1.55979404e-02,
          4.16273773e-02, 3.18786688e-02, 1.23899393e-02,
          -9.46780760e-03, -1.99456718e-02, -1.01678288e-02,
          -3.46972048e-03, -2.84571922e-03, 4.67512663e-03,
          3.68941501e-02, -2.01954562e-02, -1.56907439e-02,
          -1.74710876e-03, -2.48103263e-03, 6.87059667e-03,
          -6.11987058e-03, -1.18600382e-02, -1.71628743e-02,
          -1.61986649e-02, -1.76450387e-02, -2.25072280e-02,
          -1.64871328e-02, -2.80736666e-02, -9.20337066e-03,
          -1.13420524e-02, -5.01635252e-03, -1.18315388e-02,
          -1.14271641e-02, 3.00826831e-03, -2.40558852e-03,
          -6.71952823e-03, -6.91042002e-03, 1.13822864e-02,
          5.40007277e-05, 1.02726328e-04, -1.09157013e-02,
          -2.53925537e-04, 6.61499612e-03, 6.29911432e-03,
          8.72077048e-03, -8.85187939e-04, 1.15077430e-02,
          -2.51866691e-03, -5.77545026e-03, -8.06840695e-03,
          1.96597446e-03, 1.20632034e-02, 2.57111732e-02, 1.37539059e-02,
          -4.47434140e-04, -2.76047387e-03, -7.02683348e-03,
          -1.76011231e-02, -2.47546379e-02, -7.74047384e-03,
          1.81107596e-02, 2.57668383e-02, 8.29013623e-03,
          -7.16386456e-03, -6.63202163e-03, -3.44275683e-03,
          -1.12687694e-02, -8.40468891e-03, 6.52375678e-03,
          3.28782643e-03, 2.66845594e-03, 9.47390031e-03,
          -1.64634769e-03, 1.03180781e-02, -6.35742862e-03,
          -7.40271015e-03, -8.23548716e-03, 2.63417576e-04,
          4.37176786e-03, -2.66675651e-03, -3.56497616e-03,
          -2.71833725e-02, -8.58381484e-03, -1.07653560e-02,
          -1.45393237e-03, -5.75187290e-03, 2.27916194e-03,
          2.40280349e-02, 1.02203898e-02, 1.80391606e-03,
          -7.71513861e-03, -7.19600637e-03, -5.83910150e-03,
          -1.15619961e-03, 3.31281452e-03, 1.68397073e-02,
          1.26368273e-02, 1.51641143e-03, -1.16031161e-02,
          -3.35194468e-02, -2.65470892e-02, -1.33382268e-02,
          4.15008795e-03, 1.34714888e-02, 1.86868198e-02 ]
   uncompressed_sv_total: 55
   uncompressed_support_vectors:
      - [ 1.90709814e-01, 1.35382399e-01, 5.46675213e-02, 7.49224424e-02,
          2.29612187e-01, 1.10738300e-01, 1.79975763e-01, 1.59984574e-01,
          1.74361512e-01, 2.86721349e-01, 1.69301614e-01, 7.97622204e-02,
          6.66210651e-02, 2.56079942e-01, 1.36919469e-01, 1.94904447e-01,
          2.28065506e-01, 2.31620595e-01, 1.57116935e-01, 1.01897262e-01,
          8.98383781e-02, 2.40312666e-02, 1.40876517e-01, 6.42525628e-02,
          1.76057786e-01, 1.29489079e-01, 1.69025406e-01, 2.41493583e-01,
          9.13898647e-02, 8.46673921e-02, 6.81364983e-02, 1.94607422e-01,
          7.71705508e-02, 1.78073570e-01, 2.07416087e-01, 2.98287511e-01,
          3.45963061e-01, 1.86323419e-01, 7.37524778e-02, 8.97476822e-02,
          1.74441531e-01, 7.96530545e-02, 9.88773853e-02, 1.82841331e-01,
          2.83664465e-01, 3.07430893e-01, 1.93287045e-01, 1.59285471e-01,
          1.58210695e-01, 1.78187579e-01, 9.07814577e-02, 8.66965875e-02,
          2.49423712e-01, 2.61029005e-01, 2.08578721e-01, 1.21059999e-01,
          7.61207268e-02, 7.44099692e-02, 1.97025970e-01, 4.29590717e-02,
          7.43242428e-02, 1.11894496e-01, 1.98949412e-01, 1.54424757e-01,
          1.43493786e-01, 9.93107930e-02, 7.74215534e-02, 1.88412905e-01,
          4.95750681e-02, 1.38640881e-01, 8.48754272e-02, 1.24356091e-01,
          7.41231889e-02, 4.15433049e-02, 7.10154995e-02, 2.97334883e-02,
          6.43510446e-02, 1.94892474e-02, 7.57422820e-02, 4.70840782e-02,
          7.66020939e-02, 1.13358073e-01, 6.25737831e-02, 9.39687416e-02,
          8.20063055e-02, 1.04197450e-01, 4.95121181e-02, 1.24013156e-01,
          1.47700474e-01, 1.35531649e-01, 3.65444005e-01, 3.51300299e-01,
          7.82692581e-02, 7.09585845e-02, 1.12589233e-01, 4.78454493e-02,
          7.69504905e-02, 7.31013566e-02, 1.79371178e-01, 3.65444005e-01,
          2.51146257e-01, 8.31636190e-02, 1.50127441e-01, 1.72073916e-01,
          1.73696384e-01, 1.86732337e-01, 2.87858754e-01, 3.65444005e-01,
          8.06719139e-02, 8.28168988e-02, 8.16403255e-02, 5.66719659e-02,
          7.84358308e-02, 3.47367264e-02, 6.47819787e-02, 6.79195076e-02,
          7.57902265e-02, 6.65374771e-02, 5.62545136e-02, 6.79463521e-02,
          3.61353122e-02, 7.13708848e-02, 3.24618928e-02, 6.57181665e-02,
          2.13572308e-02, 5.67752980e-02, 4.20350790e-01, 1.86926886e-01,
          8.50973204e-02, 9.12376642e-02, 7.78785944e-02, 9.12526771e-02,
          1.10544607e-01, 1.97898328e-01, 4.20350790e-01, 4.20350790e-01,
          1.63597286e-01, 6.83669001e-02, 6.51447326e-02, 5.00742309e-02,
          2.08581891e-02, 5.95267899e-02, 2.40320608e-01, 4.20350790e-01,
          2.32982978e-01, 2.41254434e-01, 3.44619304e-02, 1.44147696e-02,
          2.03618929e-02, 1.44501971e-02, 8.36603809e-03, 6.06213696e-03,
          8.28025341e-02, 3.43255013e-01, 1.20123632e-01, 2.82461345e-02,
          3.51072960e-02, 3.50323953e-02, 4.06109355e-02, 1.81810800e-02,
          4.11952697e-02, 3.43255013e-01, 3.43255013e-01, 3.43255013e-01,
          9.69478041e-02, 1.44915655e-02, 1.38034625e-02, 8.32942594e-03,
          1.10571878e-03, 5.49242040e-03, 1.10801294e-01, 3.43255013e-01,
          3.43255013e-01, 5.39894737e-02, 4.06528153e-02, 2.40342356e-02,
          1.73330605e-02, 8.96049198e-03, 3.56174223e-02, 3.43255013e-01,
          2.76353478e-01, 3.16440463e-02, 1.18919574e-02, 1.47401588e-02,
          8.91356356e-03, 1.32651925e-02, 1.40896235e-02, 5.59192300e-02,
          3.60090196e-01, 2.14320675e-01, 4.93982211e-02, 7.17937341e-03,
          6.06148131e-03, 5.40391728e-03, 2.62785936e-04, 2.43364312e-02,
          1.30140245e-01, 3.60090196e-01, 3.60090196e-01, 6.69328719e-02,
          2.02179663e-02, 1.53498044e-02, 7.20368139e-03, 4.91114939e-03,
          1.97230279e-02, 9.94304046e-02, 3.60090196e-01, 2.63417035e-01,
          3.95307504e-02, 1.67139191e-02, 2.20605615e-03, 1.69164278e-02,
          6.15046639e-03, 8.42173249e-02, 3.26523662e-01, 3.60090196e-01,
          3.04408014e-01, 3.04408014e-01, 1.25233293e-01, 4.57571680e-03,
          2.09995382e-03, 1.69244129e-03, 8.20507295e-04, 3.87290446e-03,
          4.48609665e-02, 3.04408014e-01, 3.04408014e-01, 3.10953837e-02,
          8.90166406e-03, 3.12509015e-03, 2.62087851e-04, 6.23035943e-03,
          3.10437661e-02, 3.04408014e-01, 3.04408014e-01, 3.04408014e-01,
          2.32008025e-01, 4.50280076e-03, 6.51455997e-03, 3.60986334e-04,
          1.75559602e-03, 3.59826582e-03, 3.16115506e-02, 3.04408014e-01,
          3.04408014e-01, 4.14874144e-02, 1.67435873e-02, 1.09557121e-03,
          1.81292917e-03, 1.25933876e-02, 3.71916443e-02, 2.91080713e-01,
          3.23933095e-01, 1.06606618e-01, 1.05498303e-02, 8.21305532e-03,
          5.65339997e-03, 6.72593946e-03, 2.34950855e-02, 1.33658588e-01,
          3.23933095e-01, 1.51288643e-01, 1.24481637e-02, 1.13547631e-02,
          4.03612666e-03, 2.11114734e-02, 1.66750178e-02, 1.23074919e-01,
          3.23933095e-01, 3.23933095e-01, 3.23933095e-01, 1.07338428e-01,
          9.56352055e-03, 1.89813338e-02, 3.29580368e-03, 1.29190590e-02,
          4.33677807e-02, 2.04905495e-01, 3.23933095e-01, 1.09704800e-01,
          1.39739923e-02, 4.38813865e-03, 5.68321161e-03, 8.19664542e-03,
          1.89220607e-02, 1.39569655e-01, 3.23933095e-01, 3.23933095e-01,
          3.33472073e-01, 3.33472073e-01, 3.33472073e-01, 5.00290245e-02,
          1.07256174e-02, 4.15209011e-04, 5.70653519e-03, 1.01674926e-02,
          3.97314504e-02, 3.33472073e-01, 3.33472073e-01, 8.25180784e-02,
          2.23900136e-02, 3.53281479e-03, 3.45431897e-03, 1.54041741e-02,
          4.59969714e-02, 3.33472073e-01, 7.28708431e-02, 2.77960420e-01,
          3.33472073e-01, 1.66318417e-01, 3.49658839e-02, 1.22803161e-02,
          8.79683346e-03, 1.42941764e-02, 3.91874500e-02, 1.49333909e-01,
          2.13634983e-01, 1.00333534e-01, 2.76652947e-02, 1.51209421e-02,
          9.14144237e-03, 1.57254543e-02, 2.82554813e-02, 1.03280090e-01,
          3.23684156e-01, 1.31604150e-01, 2.09061000e-02, 2.08402872e-02,
          2.54035974e-03, 1.24449525e-02, 7.42850900e-02, 2.71334201e-01,
          3.23684156e-01, 1.47598222e-01, 2.95274630e-02, 1.33219175e-02,
          4.40167915e-03, 2.82527506e-03, 3.14183943e-02, 3.23684156e-01,
          3.23684156e-01, 3.23684156e-01, 1.54502034e-01, 1.27239004e-01,
          7.91991726e-02, 1.04887579e-02, 1.80229004e-02, 1.67381242e-02,
          4.38682064e-02, 8.15729052e-02, 1.67756528e-01, 1.43278733e-01,
          9.05321315e-02, 5.88661842e-02, 2.49478351e-02, 8.63829851e-02,
          8.17607120e-02, 3.23684156e-01, 2.61231571e-01, 2.18689352e-01,
          4.71402816e-02, 1.02336027e-01, 2.01374874e-01, 2.15555266e-01,
          1.68697342e-01, 1.01454943e-01, 3.83585580e-02, 6.47790432e-02,
          8.41571316e-02, 1.36849225e-01, 2.02675194e-01, 1.84091374e-01,
          1.55075058e-01, 5.26922345e-02, 4.69683968e-02, 3.38689908e-02,
          6.98737204e-02, 1.20037116e-01, 1.89546689e-01, 6.46800399e-02,
          6.24968074e-02, 1.08674444e-01, 2.32207268e-01, 2.62861937e-01,
          1.70056865e-01, 2.50192255e-01, 2.62861937e-01, 2.62861937e-01,
          2.62861937e-01, 2.32919931e-01, 1.92063347e-01, 8.91920850e-02,
          9.03716460e-02, 7.31709003e-02, 2.08890095e-01, 2.62861937e-01,
          1.09425135e-01, 2.15661779e-01, 2.09603652e-01, 1.42127857e-01,
          1.28171414e-01, 4.43684645e-02, 5.45746088e-02, 3.45945768e-02,
          4.35903482e-02, 9.35492367e-02, 1.17882527e-01, 1.44522056e-01,
          1.74533442e-01, 2.78860062e-01, 1.44638315e-01, 1.51557162e-01,
          7.83424005e-02, 8.55635181e-02, 1.76895827e-01, 2.78860062e-01,
          2.78860062e-01, 2.78860062e-01, 2.43725657e-01, 5.57783693e-02,
          7.85747096e-02, 4.74614389e-02, 7.98686668e-02, 6.75282776e-02,
          1.72775805e-01, 2.78860062e-01, 2.78860062e-01, 2.78860062e-01,
          1.19320139e-01, 1.05876848e-01, 5.11496030e-02, 5.78991883e-02,
          9.84225571e-02, 2.19764188e-02, 1.07804360e-02, 7.00543309e-03,
          4.76686470e-02, 1.48413688e-01, 2.25737989e-01, 2.84925371e-01,
          1.63716853e-01, 2.59987354e-01, 1.36463508e-01, 4.52322960e-02,
          2.48308424e-02, 1.83367096e-02, 2.34379694e-02, 5.35095371e-02,
          1.55780673e-01, 2.75226951e-01, 6.26865327e-02, 1.18935527e-02,
          1.45174926e-02, 1.94797316e-03, 7.25649251e-03, 6.50963262e-02,
          2.93353438e-01, 3.19315463e-01, 3.19315463e-01, 3.19315463e-01,
          4.53290306e-02, 1.39476759e-02, 1.24779111e-02, 2.35112128e-03,
          7.77480006e-03, 6.06010370e-02, 3.19315463e-01, 3.19315463e-01,
          1.84711158e-01, 1.91032484e-01, 9.13859457e-02, 9.80585963e-02,
          6.90401122e-02, 1.83494184e-02, 2.79233251e-02, 3.48945856e-02,
          1.28563493e-01, 1.37122944e-01, 2.95046419e-01, 3.18904847e-01,
          1.85196549e-01, 1.38614982e-01, 2.40437984e-02, 3.10990475e-02,
          2.70805825e-02, 6.88284934e-02, 3.18904847e-01, 2.78561831e-01,
          2.42968295e-02, 2.06925217e-02, 3.16010579e-03, 1.64513849e-03,
          5.48695028e-03, 5.63945323e-02, 3.18904847e-01, 3.18904847e-01,
          3.18904847e-01, 3.18904847e-01, 4.17187139e-02, 2.78799003e-03,
          1.20380824e-03, 2.60556233e-03, 8.39300361e-03, 1.56063139e-01,
          3.93425860e-02, 3.19639198e-03, 6.27305079e-03, 3.82480607e-03,
          2.43046833e-03, 2.20532864e-02, 1.32667154e-01, 3.43993902e-01,
          2.90030479e-01, 2.53003091e-01, 3.16529870e-02, 6.23565866e-03,
          9.62200668e-03, 1.86500838e-03, 7.09148310e-03, 2.52477620e-02,
          2.29157895e-01, 3.43993902e-01, 1.12362161e-01, 5.56411734e-03,
          2.98369140e-03, 1.12376576e-02, 2.56419857e-03, 1.26082581e-02,
          1.48803368e-01, 3.43581080e-01, 3.43993902e-01, 3.43993902e-01,
          2.39115749e-02, 2.58694915e-03, 6.84565725e-03, 2.23266706e-03,
          7.34150177e-03, 2.26909947e-02, 1.68482795e-01, 3.43993902e-01,
          3.22910160e-01, 2.21729890e-01, 7.91038759e-03, 1.08797634e-02,
          2.32763914e-03, 3.48811955e-05, 2.83027941e-04, 4.65981215e-02,
          3.22910160e-01, 3.20857495e-01, 3.22910160e-01, 9.07035992e-02,
          1.59353241e-02, 5.18907188e-03, 0., 0., 7.36604352e-03,
          9.34906527e-02, 3.22910160e-01, 1.96179807e-01, 1.85236149e-02,
          3.67225031e-03, 2.71359459e-03, 2.82048760e-03, 1.24041294e-03,
          4.99377288e-02, 3.22910160e-01, 3.22910160e-01, 3.22910160e-01,
          6.67504668e-02, 6.13040989e-03, 5.64650865e-03, 9.77476127e-04,
          7.71437044e-05, 8.12611636e-03, 2.21712455e-01, 1.60559461e-01,
          1.01256352e-02, 1.45087601e-03, 1.03888949e-02, 5.26290899e-03,
          9.60441027e-03, 7.91091099e-02, 2.80016959e-01, 3.69751483e-01,
          3.69751483e-01, 9.62299667e-03, 2.39064524e-04, 6.54586917e-03,
          2.95398734e-03, 7.66395777e-03, 1.43058123e-02, 1.18077666e-01,
          3.69751483e-01, 1.61913350e-01, 1.55506814e-02, 3.93905723e-03,
          3.83630185e-03, 8.72326177e-03, 6.73026731e-03, 1.94287822e-02,
          1.39424518e-01, 3.69751483e-01, 3.69751483e-01, 1.61810778e-02,
          3.65435448e-03, 4.87422338e-03, 2.29387567e-03, 5.19293454e-03,
          1.21131372e-02, 6.30516261e-02, 3.69751483e-01, 3.32438529e-01,
          1.03342973e-01, 1.92070920e-02, 7.77048385e-03, 1.01843067e-02,
          1.39342230e-02, 4.67617949e-03, 3.14691402e-02, 3.32438529e-01,
          3.32438529e-01, 3.32438529e-01, 7.03534037e-02, 1.04939779e-02,
          2.10813861e-02, 8.98553897e-03, 2.90024123e-04, 5.91505179e-03,
          3.18294436e-01, 3.32438529e-01, 4.04734537e-02, 5.44455880e-03,
          7.43390527e-03, 1.25836581e-02, 1.34599600e-02, 5.68160927e-03,
          2.55647432e-02, 3.32438529e-01, 3.32438529e-01, 1.68446854e-01,
          2.85127107e-02, 1.98333003e-02, 3.18430252e-02, 1.70932282e-02,
          2.38314038e-03, 2.01033987e-02, 2.63961047e-01, 4.30598587e-01,
          7.97315761e-02, 3.59063670e-02, 3.33395302e-02, 7.50434548e-02,
          1.28692407e-02, 7.78312385e-02, 2.15353265e-01, 4.35480893e-01,
          4.35480893e-01, 1.17806412e-01, 5.67584112e-02, 4.56841402e-02,
          4.34327014e-02, 2.02322621e-02, 9.74280760e-02, 1.25149742e-01,
          4.35480893e-01, 5.98867349e-02, 3.82694714e-02, 4.94888760e-02,
          5.51788136e-02, 2.09260821e-01, 1.06747262e-02, 6.22972175e-02,
          6.99809715e-02, 6.82900473e-02, 7.23389313e-02, 4.33679372e-02,
          5.47854491e-02, 3.20840739e-02, 1.26206830e-01, 3.02381665e-02,
          1.05786189e-01, 1.17368288e-01, 8.26626271e-02, 4.27196354e-01,
          1.36144906e-01, 3.79477665e-02, 4.84934896e-02, 7.07885996e-02,
          5.40202036e-02, 6.16171658e-02, 1.05169326e-01, 4.27196354e-01,
          4.27196354e-01, 2.26638004e-01, 5.62329665e-02, 8.42789561e-02,
          1.29247680e-01, 1.03799693e-01, 5.05475923e-02, 1.38055876e-01,
          4.27196354e-01, 7.98351839e-02, 5.03821112e-02, 6.00647591e-02,
          4.90190648e-02, 1.18577391e-01, 2.32539121e-02, 7.48198330e-02,
          8.24889317e-02, 8.01361203e-02, 6.61685914e-02, 1.01620331e-01,
          1.21339343e-01, 6.79176003e-02, 1.20414086e-01, 3.28386128e-02,
          6.64399341e-02, 5.94981536e-02, 6.31422326e-02, 9.85642001e-02,
          6.90523610e-02, 6.64848089e-02, 4.08285819e-02, 2.69344628e-01,
          3.33944075e-02, 8.44109133e-02, 1.34639651e-01, 1.23381063e-01,
          1.19668238e-01, 7.20602125e-02, 6.47662133e-02, 1.94016136e-02,
          1.37270778e-01, 6.23772591e-02, 1.58214957e-01, 1.93174213e-01,
          1.57316431e-01, 3.71455908e-01, 2.73316234e-01, 5.48047721e-02,
          1.63140427e-02, 1.66831583e-01, 3.74872908e-02, 7.39711225e-02,
          1.24400325e-01, 2.14151412e-01, 3.71455908e-01, 2.35939413e-01,
          8.81523117e-02, 3.18887457e-02, 6.30554259e-02, 2.22149547e-02,
          1.28073275e-01, 2.37304866e-01, 3.68847251e-01, 8.65650028e-02,
          6.17208779e-02, 7.66223967e-02, 4.05055173e-02, 1.21367492e-01,
          2.92539857e-02, 1.62716597e-01, 1.51097298e-01, 1.28396451e-01,
          1.02036953e-01, 1.90614730e-01, 1.50411934e-01, 5.89240715e-02,
          1.54616266e-01, 2.79678460e-02, 1.19799629e-01, 9.78805870e-02,
          9.93094444e-02, 1.74495086e-01, 2.02833235e-01, 1.08310148e-01,
          3.37946191e-02, 7.11583346e-02, 1.35325957e-02, 1.94490016e-01,
          3.26982945e-01, 3.62767249e-01, 2.27395937e-01, 1.95403814e-01,
          1.00764610e-01, 1.86218824e-02, 1.71243653e-01, 2.03901697e-02,
          1.86260641e-01, 3.19966793e-01, 3.62767249e-01 ]
      - [ 3.18775445e-01, 1.17204070e-01, 5.16719371e-02, 2.16321293e-02,
          1.34825423e-01, 1.92102090e-01, 1.67352468e-01, 1.74124032e-01,
          2.11384147e-01, 3.27918172e-01, 1.28723711e-01, 1.19450890e-01,
          9.52486247e-02, 1.39852807e-01, 1.57924324e-01, 2.11954176e-01,
          2.67692834e-01, 2.74184078e-01, 1.85006365e-01, 4.67213392e-02,
          9.70940739e-02, 2.46829633e-02, 8.86595920e-02, 8.19516405e-02,
          1.86462268e-01, 1.10635042e-01, 2.06343636e-01, 1.48199007e-01,
          1.12119578e-01, 1.45564765e-01, 9.41882655e-02, 9.66649652e-02,
          1.33388385e-01, 2.09798276e-01, 1.39019698e-01, 1.73865139e-01,
          2.24669218e-01, 1.38287589e-01, 1.01049468e-01, 1.73567459e-01,
          1.10569485e-01, 1.16365634e-01, 1.53347135e-01, 2.07436472e-01,
          3.01664710e-01, 2.51292020e-01, 1.97843373e-01, 1.02794513e-01,
          1.34033293e-01, 1.52224198e-01, 1.09921299e-01, 1.78901792e-01,
          1.70561671e-01, 2.67778248e-01, 1.47729844e-01, 1.50047913e-01,
          1.47664621e-01, 1.17045142e-01, 1.05652899e-01, 1.18934609e-01,
          1.62047505e-01, 1.09537147e-01, 1.45975664e-01, 1.82673633e-01,
          1.61686748e-01, 1.93738535e-01, 1.08876474e-01, 1.55257463e-01,
          1.28924519e-01, 2.00557262e-01, 1.13340020e-01, 1.91661701e-01,
          6.17459789e-02, 3.78383808e-02, 9.58315730e-02, 2.30846107e-02,
          3.94119620e-02, 1.19025838e-02, 2.96994150e-02, 2.21500881e-02,
          6.36473075e-02, 6.75441772e-02, 7.41815865e-02, 8.10648277e-02,
          2.80285589e-02, 6.59667104e-02, 6.85174912e-02, 7.31592700e-02,
          6.51402175e-02, 6.05578348e-02, 4.24712181e-01, 3.22058290e-01,
          1.53236955e-01, 4.07606848e-02, 5.53711765e-02, 2.34944671e-02,
          3.97604443e-02, 7.79045522e-02, 3.02313685e-01, 4.24712181e-01,
          2.58075505e-01, 1.27582163e-01, 4.17436995e-02, 9.16845500e-02,
          6.62391484e-02, 1.61241531e-01, 1.94586411e-01, 4.24712181e-01,
          5.13309017e-02, 8.09353366e-02, 6.19432852e-02, 3.89213003e-02,
          6.52048141e-02, 5.58734946e-02, 4.87392880e-02, 3.34831104e-02,
          3.64214107e-02, 5.30562848e-02, 6.80655763e-02, 8.21482986e-02,
          8.01097155e-02, 7.14044496e-02, 4.58700247e-02, 6.07278645e-02,
          3.63572054e-02, 5.48827387e-02, 4.30262566e-01, 1.91726565e-01,
          9.55179408e-02, 3.29482220e-02, 5.40151745e-02, 4.09416147e-02,
          1.00359567e-01, 1.07498825e-01, 4.30262566e-01, 4.30262566e-01,
          2.02313066e-01, 9.74363685e-02, 5.70697002e-02, 5.39864413e-02,
          1.62228402e-02, 6.71659559e-02, 2.40968525e-01, 4.30262566e-01,
          3.01510990e-01, 2.05924287e-01, 4.77786623e-02, 1.14915874e-02,
          6.75680395e-03, 8.50856490e-03, 1.49643980e-02, 2.46114098e-02,
          1.29507527e-01, 3.51761192e-01, 7.90825859e-02, 1.56516694e-02,
          5.52357314e-03, 7.59207550e-03, 6.04639947e-03, 2.19961517e-02,
          5.82777373e-02, 3.51761192e-01, 3.51761192e-01, 3.51761192e-01,
          9.40399468e-02, 1.38481576e-02, 1.59463647e-03, 1.01098493e-02,
          1.04990602e-02, 1.87436678e-02, 1.31923541e-01, 3.51761192e-01,
          2.28433833e-01, 2.65540276e-02, 9.25223343e-03, 1.23856193e-03,
          1.19313253e-02, 1.95805170e-02, 9.80417430e-02, 3.51761192e-01,
          3.38959366e-01, 2.43774317e-02, 9.84329730e-03, 2.19939766e-03,
          3.03090387e-03, 1.84171519e-03, 1.06568178e-02, 3.25475335e-02,
          3.38959366e-01, 2.81741858e-01, 4.71577346e-02, 1.45678110e-02,
          4.10847925e-03, 8.90901405e-03, 6.70238817e-03, 2.98258513e-02,
          1.09806433e-01, 3.38959366e-01, 3.38959366e-01, 3.09751201e-02,
          8.30423646e-03, 3.18326824e-03, 9.24225431e-04, 3.23433359e-03,
          1.54557889e-02, 1.01324551e-01, 3.38959366e-01, 3.29472005e-01,
          1.98990945e-02, 1.41661251e-02, 8.57914612e-03, 1.04640462e-02,
          1.10393297e-02, 9.13152099e-02, 2.84817398e-01, 3.38959366e-01,
          3.05251420e-01, 3.08749825e-01, 8.22057799e-02, 9.10566933e-03,
          2.81404093e-04, 4.07272344e-03, 2.85141147e-03, 7.38343131e-03,
          5.34719937e-02, 3.08749825e-01, 3.08749825e-01, 2.91088149e-02,
          7.88259413e-03, 4.79166658e-04, 6.17491780e-03, 9.71766654e-03,
          5.26580773e-02, 3.08749825e-01, 2.92872787e-01, 3.08749825e-01,
          1.78919151e-01, 1.11934468e-02, 3.77149030e-04, 5.37395431e-03,
          8.92884564e-03, 5.12541970e-03, 4.62619960e-02, 3.08749825e-01,
          3.08749825e-01, 6.33431748e-02, 7.75074121e-03, 4.24735277e-04,
          7.24183349e-03, 2.16127448e-02, 5.24517745e-02, 3.08749825e-01,
          3.19241732e-01, 6.94475546e-02, 7.41291000e-03, 1.80788257e-03,
          9.35406249e-04, 5.13574854e-03, 1.46612413e-02, 1.69076145e-01,
          3.19241732e-01, 2.01450780e-01, 6.17979933e-03, 9.03882086e-03,
          4.18247236e-03, 9.86644067e-03, 2.11689044e-02, 9.61264968e-02,
          3.19241732e-01, 3.19241732e-01, 3.19241732e-01, 9.06041265e-02,
          1.63355190e-02, 2.40891241e-03, 5.55341830e-03, 3.16917263e-02,
          4.17136513e-02, 2.26784021e-01, 3.19241732e-01, 1.08890675e-01,
          1.10401250e-02, 8.00763257e-03, 1.40196236e-03, 1.05493953e-02,
          6.71435595e-02, 1.33863270e-01, 3.19241732e-01, 3.19241732e-01,
          3.30448806e-01, 3.30448806e-01, 3.30448806e-01, 4.77231145e-02,
          3.76134599e-03, 9.92149767e-03, 1.57613419e-02, 5.74343419e-03,
          8.25994313e-02, 3.30448806e-01, 3.30448806e-01, 1.19631924e-01,
          1.95604898e-02, 2.40074866e-03, 9.04492754e-03, 3.21295150e-02,
          4.78148460e-02, 3.30448806e-01, 1.09139465e-01, 2.69296467e-01,
          3.30448806e-01, 1.66937381e-01, 7.58589953e-02, 9.80542786e-03,
          1.30017148e-02, 1.21231386e-02, 3.70006002e-02, 1.70001477e-01,
          1.78496882e-01, 1.17876947e-01, 4.93484624e-02, 2.78906971e-02,
          1.11545548e-02, 2.09945012e-02, 1.82639044e-02, 7.82575533e-02,
          3.26145262e-01, 8.52142051e-02, 2.44380292e-02, 1.37673132e-02,
          1.26031209e-02, 4.27810848e-02, 8.13538283e-02, 2.19199896e-01,
          3.26145262e-01, 1.34420231e-01, 2.23273169e-02, 4.09517670e-03,
          6.72157714e-03, 1.86510533e-02, 9.81333554e-02, 3.26145262e-01,
          3.26145262e-01, 3.26145262e-01, 1.36632159e-01, 1.33162886e-01,
          1.04926959e-01, 3.94118652e-02, 3.17688696e-02, 2.82248203e-02,
          4.67781238e-02, 5.73648028e-02, 1.34503976e-01, 1.26507223e-01,
          8.53381976e-02, 5.39385080e-02, 7.27699846e-02, 1.35221317e-01,
          9.07048881e-02, 3.26145262e-01, 3.21964383e-01, 1.70882061e-01,
          1.15145855e-01, 1.16665743e-01, 1.73396155e-01, 2.20628574e-01,
          2.51402617e-01, 7.40163475e-02, 6.02676459e-02, 3.43069918e-02,
          7.24292621e-02, 1.68280452e-01, 1.94181338e-01, 2.16679975e-01,
          1.50994390e-01, 8.06450769e-02, 3.10535878e-02, 4.35731001e-02,
          2.20928080e-02, 1.08947560e-01, 2.01960132e-01, 4.71684150e-02,
          3.91776748e-02, 1.06847636e-01, 2.51402617e-01, 2.51402617e-01,
          2.51402617e-01, 2.15487197e-01, 2.45571315e-01, 2.51402617e-01,
          2.51402617e-01, 2.41133943e-01, 1.67022407e-01, 9.87106487e-02,
          7.32722431e-02, 5.34291901e-02, 9.85221714e-02, 2.51402617e-01,
          6.94219247e-02, 2.00073808e-01, 2.55647480e-01, 1.41861737e-01,
          1.68964580e-01, 8.31849128e-02, 5.28970212e-02, 2.84403749e-02,
          4.04089466e-02, 8.50812048e-02, 1.09505452e-01, 1.38544574e-01,
          2.70338893e-01, 2.87582070e-01, 1.82229862e-01, 1.69460937e-01,
          1.27956048e-01, 6.52609468e-02, 1.30878747e-01, 1.99122578e-01,
          2.57690042e-01, 1.80881441e-01, 2.20900044e-01, 9.04091522e-02,
          5.11773936e-02, 3.47855203e-02, 8.74948874e-02, 1.03264526e-01,
          1.71925083e-01, 2.61786044e-01, 2.87582070e-01, 2.87582070e-01,
          1.69490337e-01, 1.13753766e-01, 7.58268237e-02, 5.81960939e-02,
          5.77939004e-02, 9.42944083e-03, 4.62021772e-03, 1.07164895e-02,
          3.09943780e-02, 1.41591445e-01, 2.43191883e-01, 3.24106574e-01,
          1.53838694e-01, 1.89509213e-01, 6.91174790e-02, 3.75671685e-02,
          2.27580033e-02, 1.76254064e-02, 2.20473278e-02, 4.31510285e-02,
          1.56898499e-01, 2.90740460e-01, 4.68195938e-02, 2.35487032e-03,
          2.32331990e-03, 9.64029320e-03, 8.87098443e-03, 6.25030175e-02,
          2.98392087e-01, 3.24106574e-01, 3.24106574e-01, 3.24106574e-01,
          6.78613707e-02, 1.13309333e-02, 5.31981885e-03, 4.37277742e-03,
          1.06577426e-02, 6.68479800e-02, 3.24106574e-01, 3.24106574e-01,
          2.04711378e-01, 1.37560025e-01, 5.48957177e-02, 3.67433317e-02,
          3.73175107e-02, 1.77161414e-02, 1.47617571e-02, 2.57486552e-02,
          1.54881060e-01, 1.79925665e-01, 3.38267893e-01, 2.42399022e-01,
          1.03829652e-01, 8.69923830e-02, 2.48984378e-02, 2.43284144e-02,
          2.72759870e-02, 5.65193407e-02, 3.38267893e-01, 3.38267893e-01,
          5.95132299e-02, 2.43942905e-02, 4.14621690e-03, 2.01491453e-03,
          8.08718055e-03, 7.01874420e-02, 3.38267893e-01, 3.38267893e-01,
          3.38267893e-01, 2.73255050e-01, 9.05970782e-02, 3.87261622e-03,
          8.27022246e-04, 9.57063399e-04, 2.97588971e-03, 1.07796393e-01,
          4.64806259e-02, 3.27897631e-03, 2.58286321e-03, 9.54474136e-03,
          4.66840994e-03, 1.17084226e-02, 1.14820272e-01, 3.15849155e-01,
          2.97705919e-01, 3.15849155e-01, 5.66196814e-02, 3.83881689e-03,
          3.78628750e-03, 2.20114249e-03, 2.95475614e-03, 2.84934528e-02,
          3.15849155e-01, 3.15849155e-01, 1.16998412e-01, 8.47521983e-03,
          6.26318390e-03, 1.13539156e-02, 3.07354098e-03, 9.09661222e-03,
          1.03554770e-01, 3.15849155e-01, 3.15849155e-01, 3.15849155e-01,
          2.97141504e-02, 1.67094090e-03, 4.27094614e-03, 4.28643078e-03,
          6.45469502e-03, 2.44413931e-02, 2.53282666e-01, 3.15849155e-01,
          3.17464888e-01, 2.93621898e-01, 2.67540272e-02, 6.54477393e-03,
          6.38422556e-04, 6.50977308e-04, 2.64182221e-03, 6.07640073e-02,
          3.17464888e-01, 3.17464888e-01, 3.17464888e-01, 1.13703065e-01,
          2.16585901e-02, 4.86075965e-04, 2.71446857e-04, 4.65810735e-05,
          3.92775610e-03, 7.63304830e-02, 3.17464888e-01, 1.89374641e-01,
          1.86419506e-02, 1.28353601e-02, 9.98451654e-03, 1.02373464e-02,
          6.94769667e-03, 5.55494130e-02, 3.17464888e-01, 3.17464888e-01,
          3.17464888e-01, 9.01426524e-02, 2.18696091e-02, 8.34480207e-03,
          6.42988645e-03, 6.83058985e-03, 1.50590874e-02, 1.78724229e-01,
          2.02186301e-01, 2.30833814e-02, 9.53955110e-03, 1.26523329e-02,
          8.92923772e-03, 1.08258929e-02, 9.57964808e-02, 2.57460117e-01,
          3.69428456e-01, 3.69428456e-01, 2.55231299e-02, 1.44366350e-03,
          5.32746874e-03, 5.96643658e-03, 6.27885293e-03, 2.09375396e-02,
          1.28853336e-01, 3.69428456e-01, 1.64631382e-01, 3.61691453e-02,
          5.16258227e-03, 1.54104410e-02, 1.73046198e-02, 3.52015509e-03,
          3.91680598e-02, 6.05301373e-02, 3.69428456e-01, 3.69428456e-01,
          4.73578982e-02, 2.15835124e-03, 7.53068971e-03, 1.39294686e-02,
          1.72048027e-03, 8.78613722e-03, 7.45626464e-02, 3.69428456e-01,
          3.32599342e-01, 9.03983712e-02, 1.03734536e-02, 1.12372851e-02,
          9.15166363e-03, 1.07803084e-02, 2.28936449e-02, 8.23685825e-02,
          3.32599342e-01, 3.32599342e-01, 3.32599342e-01, 6.66031614e-02,
          2.20515616e-02, 9.64539777e-03, 1.65465865e-02, 3.68806571e-02,
          4.47391011e-02, 3.01749945e-01, 3.32599342e-01, 5.80084026e-02,
          7.33366050e-03, 6.03433046e-03, 1.02747139e-02, 2.55564018e-03,
          1.87754016e-02, 9.91388708e-02, 3.32599342e-01, 3.32599342e-01,
          1.65410608e-01, 2.91313641e-02, 1.16025396e-02, 1.24554923e-02,
          1.23082139e-02, 3.42467055e-02, 4.05956097e-02, 2.47956946e-01,
          2.94316858e-01, 9.55295265e-02, 3.67533937e-02, 4.44428809e-02,
          1.36692405e-01, 9.11823008e-03, 3.40862498e-02, 6.86741173e-02,
          4.53491062e-01, 4.53491062e-01, 1.25656992e-01, 2.95456592e-02,
          7.08985925e-02, 2.26326957e-01, 1.70754809e-02, 5.89689128e-02,
          1.79608956e-01, 4.53491062e-01, 5.48222065e-02, 6.04385734e-02,
          8.73422623e-02, 2.81843003e-02, 1.44314662e-01, 1.45671638e-02,
          4.39397804e-02, 1.84978824e-02, 5.52257933e-02, 6.59152940e-02,
          6.29021600e-02, 8.40532333e-02, 3.88149843e-02, 2.52925068e-01,
          4.27295938e-02, 1.10977829e-01, 7.34597668e-02, 6.34103864e-02,
          3.85426491e-01, 1.21342368e-01, 2.91857179e-02, 4.83166017e-02,
          1.70779243e-01, 1.34888422e-02, 6.28263354e-02, 2.17442110e-01,
          3.85426491e-01, 3.85426491e-01, 2.29356632e-01, 7.02616349e-02,
          3.60675901e-02, 1.62734613e-01, 3.40568870e-02, 8.98399726e-02,
          1.31471604e-01, 3.85426491e-01, 9.07918811e-02, 8.43402818e-02,
          3.81009802e-02, 2.20162012e-02, 1.98275402e-01, 2.09650993e-02,
          1.13480307e-01, 9.97126848e-02, 6.28808886e-02, 1.11214668e-01,
          9.66124535e-02, 4.74276952e-02, 1.76487640e-02, 2.00455248e-01,
          1.51747474e-02, 1.31786659e-01, 1.28925472e-01, 9.55162346e-02,
          1.47411630e-01, 1.35350153e-01, 1.54159695e-01, 6.64664060e-02,
          1.16133437e-01, 1.03471391e-02, 4.13055085e-02, 5.34374565e-02,
          1.46956220e-01, 1.53127521e-01, 1.74198702e-01, 1.29088223e-01,
          4.68077399e-02, 1.21803589e-01, 5.63113391e-02, 7.09498674e-02,
          8.18600953e-02, 1.04223415e-01, 3.41916829e-01, 2.51900107e-01,
          2.38106295e-01, 4.58940603e-02, 7.79281929e-02, 3.56983952e-03,
          4.59857397e-02, 1.10041127e-01, 3.08113605e-01, 3.41916829e-01,
          3.41916829e-01, 1.10331781e-01, 2.99319588e-02, 7.09068626e-02,
          3.50411534e-02, 5.65415472e-02, 2.25990444e-01, 3.36948007e-01,
          1.38497025e-01, 1.64006755e-01, 7.41247535e-02, 1.25796273e-02,
          1.01219922e-01, 4.97753583e-02, 1.03025831e-01, 7.55832046e-02,
          7.84860477e-02, 1.46987587e-01, 1.26559570e-01, 7.87461549e-02,
          1.39716435e-02, 1.12887695e-01, 2.19859611e-02, 1.36434287e-01,
          1.28331631e-01, 1.43593863e-01, 3.46644282e-01, 3.04370612e-01,
          5.31311557e-02, 4.64736018e-03, 7.96505436e-02, 5.09564951e-02,
          8.35096017e-02, 2.15797007e-01, 3.02058458e-01, 3.46644282e-01,
          2.18748018e-01, 6.45418540e-02, 3.22422548e-03, 8.14665928e-02,
          2.48317625e-02, 2.27131799e-01, 2.75828540e-01, 3.46644282e-01 ]
      - [ 2.13971868e-01, 1.07935578e-01, 1.22478426e-01, 6.80472702e-02,
          1.01529561e-01, 8.17589164e-02, 1.43251806e-01, 2.05207512e-01,
          2.46233508e-01, 3.25262040e-01, 1.12218104e-01, 1.43948704e-01,
          1.09757483e-01, 1.21277064e-01, 1.00441843e-01, 1.21335618e-01,
          2.40151256e-01, 3.94023418e-01, 2.78320938e-01, 2.67682206e-02,
          4.39541377e-02, 1.92219038e-02, 3.51383612e-02, 1.21263005e-02,
          1.13250263e-01, 8.05822909e-02, 2.78807014e-01, 2.71283150e-01,
          1.10870920e-01, 1.59174368e-01, 4.46590595e-02, 5.42142019e-02,
          1.88341700e-02, 1.35275140e-01, 8.03191960e-02, 2.34443888e-01,
          3.24063957e-01, 9.23427790e-02, 1.21862583e-01, 6.92108646e-02,
          1.18806370e-01, 7.82926008e-02, 1.02306508e-01, 1.68400079e-01,
          3.66130084e-01, 3.41758549e-01, 1.34150848e-01, 1.81833789e-01,
          1.31330460e-01, 1.97433993e-01, 8.96794572e-02, 1.13142774e-01,
          1.49477527e-01, 2.87698627e-01, 2.14633286e-01, 1.87721625e-01,
          1.83509186e-01, 1.83700733e-02, 5.89574352e-02, 1.32534662e-02,
          1.01540133e-01, 5.21860756e-02, 1.54380888e-01, 1.91507503e-01,
          1.74014881e-01, 1.36685789e-01, 2.25863717e-02, 1.25095874e-01,
          1.29991043e-02, 1.79713443e-01, 9.50945616e-02, 1.44378036e-01,
          1.27779379e-01, 3.29101346e-02, 4.54915017e-02, 2.68368088e-02,
          1.88893601e-02, 1.04726190e-02, 4.59266677e-02, 2.17081159e-02,
          1.24335781e-01, 9.61772427e-02, 9.86544713e-02, 1.46350145e-01,
          7.53307268e-02, 4.48822007e-02, 9.26742982e-03, 6.66510165e-02,
          3.31050493e-02, 8.68627876e-02, 4.25803423e-01, 2.19273880e-01,
          1.18481308e-01, 8.25430006e-02, 1.50930032e-01, 6.53192699e-02,
          7.01507106e-02, 3.53893228e-02, 3.15965444e-01, 4.25803423e-01,
          2.02442497e-01, 1.32364661e-01, 1.49572387e-01, 1.36977509e-01,
          6.22881278e-02, 1.09622195e-01, 1.85292289e-01, 4.25803423e-01,
          7.13384748e-02, 1.19247630e-01, 1.21073447e-01, 3.53909470e-02,
          3.84685285e-02, 8.56130105e-03, 3.73891406e-02, 1.94919966e-02,
          5.52823618e-02, 7.99384639e-02, 1.10603891e-01, 8.61325860e-02,
          6.51230710e-03, 3.38549353e-02, 3.89150064e-03, 8.38624388e-02,
          3.38129476e-02, 5.79490140e-02, 4.21842545e-01, 1.52969524e-01,
          1.08844854e-01, 7.00822249e-02, 4.37710173e-02, 2.59858314e-02,
          4.16441485e-02, 2.02348560e-01, 4.21842545e-01, 4.21842545e-01,
          1.92555502e-01, 1.11954749e-01, 1.16801169e-02, 2.28291862e-02,
          1.91294607e-02, 5.49878329e-02, 2.53980935e-01, 4.21842545e-01,
          1.96916521e-01, 1.28608391e-01, 6.25968650e-02, 2.62932498e-02,
          3.15670259e-02, 1.48468856e-02, 9.70443152e-03, 7.57180853e-03,
          1.44917220e-01, 3.48011583e-01, 7.55478516e-02, 2.81465482e-02,
          2.50021033e-02, 3.00092865e-02, 2.56483890e-02, 1.09455334e-02,
          3.94479446e-02, 3.48011583e-01, 3.48011583e-01, 3.48011583e-01,
          1.24733970e-01, 2.93799732e-02, 1.92831177e-02, 8.52894876e-03,
          5.42815775e-03, 6.22079242e-03, 1.84203029e-01, 3.48011583e-01,
          3.48011583e-01, 6.08931668e-02, 2.28817463e-02, 1.49021884e-02,
          1.75735839e-02, 1.41644862e-03, 2.13130414e-02, 3.48011583e-01,
          2.86283374e-01, 3.06504108e-02, 1.01984162e-02, 6.70449296e-03,
          3.82909784e-03, 5.71272522e-03, 5.90876304e-03, 7.32940584e-02,
          3.54518056e-01, 1.83873594e-01, 3.26529592e-02, 1.36200916e-02,
          3.34944436e-03, 3.18962545e-03, 6.97272969e-03, 2.25881003e-02,
          1.79637000e-01, 3.54518056e-01, 3.54518056e-01, 7.03282952e-02,
          1.79887712e-02, 5.46716852e-03, 3.16447020e-03, 6.26876671e-03,
          6.99942000e-03, 1.22910850e-01, 3.54518056e-01, 2.37321973e-01,
          3.19323987e-02, 1.48775876e-02, 3.80834169e-03, 9.25580598e-03,
          2.50825603e-02, 8.45633969e-02, 3.54518056e-01, 3.54518056e-01,
          3.05118501e-01, 3.05118501e-01, 1.07510589e-01, 1.21331448e-02,
          8.62308964e-03, 2.40213098e-03, 2.45440030e-03, 1.21756468e-03,
          6.20219074e-02, 3.05118501e-01, 3.05118501e-01, 2.46291533e-02,
          3.90322017e-03, 2.35225679e-03, 4.07649204e-03, 3.65553889e-03,
          3.00196428e-02, 3.05118501e-01, 3.05118501e-01, 3.05118501e-01,
          2.04849139e-01, 1.19914813e-02, 5.50406892e-03, 4.82595060e-03,
          2.98139593e-03, 1.99730066e-03, 2.54184436e-02, 3.05118501e-01,
          3.05118501e-01, 3.70283164e-02, 1.81688238e-02, 2.88634794e-03,
          2.07637884e-02, 1.08273532e-02, 6.08455613e-02, 3.05118501e-01,
          3.25171709e-01, 7.93726966e-02, 6.65157102e-03, 1.19064143e-03,
          7.96670560e-03, 8.05232860e-03, 2.68379413e-02, 1.29488692e-01,
          3.25171709e-01, 1.17566787e-01, 1.98736358e-02, 7.79687613e-03,
          8.05999036e-04, 1.76286381e-02, 3.62056345e-02, 1.25946760e-01,
          3.25171709e-01, 3.25171709e-01, 2.99232751e-01, 8.92885849e-02,
          8.09527934e-03, 6.71370141e-03, 9.65726562e-03, 2.11941954e-02,
          5.93812354e-02, 2.38144249e-01, 3.25171709e-01, 4.87010479e-02,
          1.56590566e-02, 1.45002292e-03, 1.93024613e-03, 2.17507798e-02,
          2.98812110e-02, 1.96155235e-01, 3.25171709e-01, 3.25171709e-01,
          2.74521351e-01, 3.33614320e-01, 3.33614320e-01, 2.82212477e-02,
          1.01904608e-02, 6.74545439e-03, 3.63177317e-03, 4.29089833e-03,
          3.84002216e-02, 3.33614320e-01, 3.33614320e-01, 1.12830356e-01,
          2.50749439e-02, 2.07477692e-03, 2.91358288e-02, 1.74288284e-02,
          7.66566172e-02, 3.33614320e-01, 9.48804170e-02, 3.33614320e-01,
          3.33614320e-01, 1.34214699e-01, 6.77304417e-02, 1.38490479e-02,
          1.21495863e-02, 1.27235642e-02, 4.42971587e-02, 1.25548005e-01,
          2.05658257e-01, 1.10832676e-01, 3.10763214e-02, 2.00338513e-02,
          2.05575433e-02, 1.45032257e-02, 4.12551276e-02, 1.06113739e-01,
          3.20300728e-01, 1.00656971e-01, 2.81523652e-02, 1.04855746e-02,
          6.57248590e-03, 3.40772718e-02, 1.11372069e-01, 3.20300728e-01,
          3.20300728e-01, 6.43288717e-02, 2.10099444e-02, 7.38451537e-03,
          3.12829949e-03, 2.29826029e-02, 6.93904683e-02, 3.20300728e-01,
          3.20300728e-01, 3.20300728e-01, 1.24831937e-01, 9.33123752e-02,
          1.01931967e-01, 2.26603933e-02, 3.36724184e-02, 2.60707941e-02,
          6.75435141e-02, 9.86231640e-02, 1.62705809e-01, 1.15955859e-01,
          5.95993325e-02, 6.27688468e-02, 5.66092916e-02, 9.16332528e-02,
          1.49579972e-01, 3.20300728e-01, 2.97012120e-01, 1.52063608e-01,
          8.12921748e-02, 1.00878008e-01, 1.90105334e-01, 1.90629542e-01,
          2.21008122e-01, 1.02815352e-01, 6.29595816e-02, 4.47678007e-02,
          8.81446376e-02, 1.05276294e-01, 2.64922351e-01, 2.30647102e-01,
          1.19426139e-01, 4.89370674e-02, 4.69956920e-02, 3.77076603e-02,
          5.05604036e-02, 1.17755316e-01, 1.67012721e-01, 8.20888281e-02,
          6.84740543e-02, 1.13196611e-01, 2.29976565e-01, 2.64922351e-01,
          2.64922351e-01, 1.80513784e-01, 2.30602130e-01, 2.64922351e-01,
          2.64922351e-01, 2.64922351e-01, 1.49713337e-01, 4.94184420e-02,
          6.20036386e-02, 9.44203138e-02, 1.19392529e-01, 2.64922351e-01,
          6.09121174e-02, 2.33404711e-01, 2.61050195e-01, 1.21174768e-01,
          1.63551912e-01, 6.84611052e-02, 3.95332389e-02, 3.54326218e-02,
          8.89087170e-02, 6.77131787e-02, 9.13716406e-02, 1.23084143e-01,
          1.86298624e-01, 2.74468303e-01, 1.92425653e-01, 1.45517886e-01,
          6.47132397e-02, 1.13707446e-01, 9.44231078e-02, 2.74468303e-01,
          2.74468303e-01, 2.62424082e-01, 2.32414335e-01, 1.08881935e-01,
          3.67012173e-02, 3.78389321e-02, 1.00279734e-01, 2.78298967e-02,
          1.90028042e-01, 2.37743020e-01, 2.74468303e-01, 2.74468303e-01,
          1.98002130e-01, 3.86560559e-02, 3.62181142e-02, 8.60090777e-02,
          1.00906745e-01, 2.26700492e-02, 1.08890506e-02, 1.56189362e-02,
          3.42439450e-02, 1.66450799e-01, 2.84811407e-01, 2.60803640e-01,
          1.53917179e-01, 2.21239448e-01, 1.66904360e-01, 6.39036447e-02,
          3.16536948e-02, 1.07916575e-02, 2.82019340e-02, 5.76669127e-02,
          1.34686366e-01, 2.50970453e-01, 7.95604587e-02, 1.36873228e-02,
          1.43465800e-02, 6.29300205e-03, 4.04035440e-03, 6.61788061e-02,
          3.13775420e-01, 3.13775420e-01, 3.13775420e-01, 3.13775420e-01,
          6.41794577e-02, 2.33331826e-02, 1.76153239e-02, 8.82720482e-03,
          2.87589375e-02, 9.52894315e-02, 3.13775420e-01, 3.13775420e-01,
          1.34035721e-01, 2.23583624e-01, 8.59018862e-02, 8.23207200e-02,
          5.08926325e-02, 4.39239666e-02, 9.23354831e-03, 3.79586071e-02,
          1.26452416e-01, 8.29165429e-02, 3.08539689e-01, 3.15095574e-01,
          2.23415345e-01, 1.11173138e-01, 5.73187247e-02, 4.77386499e-03,
          2.14921609e-02, 6.27061874e-02, 3.15095574e-01, 3.15095574e-01,
          4.91211377e-02, 3.55328843e-02, 1.13865640e-02, 2.27668602e-02,
          8.69720709e-03, 4.84990180e-02, 3.15095574e-01, 3.15095574e-01,
          3.15095574e-01, 3.15095574e-01, 8.23312625e-02, 5.94752654e-03,
          6.34299545e-03, 5.53300604e-04, 5.25705190e-03, 1.09667741e-01,
          5.23318499e-02, 1.01792812e-02, 8.41470063e-03, 2.81287823e-03,
          3.08351533e-04, 2.31395140e-02, 1.74283415e-01, 3.36685658e-01,
          2.64716446e-01, 3.36685658e-01, 5.60047962e-02, 1.12048844e-02,
          9.01783817e-03, 4.13347688e-03, 1.18624130e-02, 4.79620695e-02,
          2.11136833e-01, 3.36685658e-01, 1.16741680e-01, 1.77513622e-02,
          6.39773719e-03, 9.77437384e-03, 6.43658161e-04, 2.20039301e-02,
          1.53863445e-01, 3.08114469e-01, 3.36685658e-01, 3.36685658e-01,
          4.87368070e-02, 6.18208153e-03, 4.73603979e-03, 1.33946422e-03,
          5.80995856e-03, 2.63814814e-02, 1.60827816e-01, 3.36685658e-01,
          3.15270960e-01, 2.48539492e-01, 2.30295919e-02, 2.14582216e-02,
          7.42324349e-03, 8.48822482e-03, 4.06576600e-03, 3.42441946e-02,
          3.15270960e-01, 3.05108964e-01, 3.15270960e-01, 1.63772687e-01,
          2.42008381e-02, 3.68575822e-03, 1.31646078e-03, 2.83087458e-04,
          5.07694343e-03, 6.82151467e-02, 3.15270960e-01, 2.42907181e-01,
          4.23001647e-02, 8.88787583e-03, 5.43667655e-03, 2.37180246e-03,
          1.40446809e-03, 3.73604558e-02, 3.15270960e-01, 3.15270960e-01,
          3.15270960e-01, 1.39071167e-01, 1.67341605e-02, 4.72059241e-03,
          2.14613182e-03, 8.35018509e-05, 8.18185322e-03, 1.72590405e-01,
          1.64400041e-01, 1.90193821e-02, 6.41914690e-03, 1.43774617e-02,
          3.89655633e-03, 1.56281721e-02, 6.70829341e-02, 2.53212720e-01,
          3.70805085e-01, 3.70805085e-01, 2.98080891e-02, 2.14711181e-03,
          3.69244884e-03, 2.57147267e-03, 8.86234269e-03, 1.17528634e-02,
          1.18945546e-01, 3.70805085e-01, 1.78786576e-01, 2.37796810e-02,
          1.43393446e-02, 1.12203583e-02, 7.67050963e-03, 5.99161442e-03,
          1.90335587e-02, 1.45995483e-01, 3.70805085e-01, 3.70805085e-01,
          2.43471432e-02, 3.91883403e-03, 1.71995792e-03, 3.85923055e-03,
          5.86154638e-03, 8.07173923e-03, 6.45508692e-02, 3.70805085e-01,
          3.41628730e-01, 1.59786165e-01, 4.82280180e-02, 2.28558090e-02,
          2.25983318e-02, 1.78625192e-02, 8.46531428e-03, 3.55370119e-02,
          3.41628730e-01, 3.41628730e-01, 3.41628730e-01, 1.15461260e-01,
          4.60745580e-02, 2.53726821e-02, 1.17571540e-02, 1.78317307e-03,
          2.34377142e-02, 2.89485872e-01, 3.41628730e-01, 7.62633383e-02,
          9.03130230e-03, 2.34215520e-02, 2.67731100e-02, 1.86275598e-02,
          9.94264986e-03, 4.85171787e-02, 3.41628730e-01, 2.33586416e-01,
          1.98618203e-01, 2.89423466e-02, 4.57666069e-02, 3.45637277e-02,
          1.81399249e-02, 7.56509369e-03, 7.01277629e-02, 2.27562681e-01,
          4.27694410e-01, 8.58537629e-02, 8.45889673e-02, 1.64827034e-02,
          5.51170260e-02, 1.24270199e-02, 4.55318913e-02, 2.01614991e-01,
          4.55279201e-01, 4.55279201e-01, 7.98007920e-02, 6.29128143e-02,
          1.27187697e-02, 6.34534210e-02, 6.74278941e-03, 4.93052900e-02,
          1.43386319e-01, 4.55279201e-01, 8.11469778e-02, 3.19942124e-02,
          5.32463603e-02, 7.87625369e-03, 8.40113014e-02, 2.27434076e-02,
          4.93254103e-02, 6.51548505e-02, 9.07646194e-02, 8.89334902e-02,
          6.27148151e-02, 9.12221149e-02, 2.44417675e-02, 1.42415598e-01,
          2.45213006e-02, 6.58370629e-02, 4.30338755e-02, 1.07711084e-01,
          4.22812372e-01, 1.40675023e-01, 4.32569347e-02, 5.40972725e-02,
          9.74751636e-02, 2.57739462e-02, 4.28596176e-02, 1.58166766e-01,
          4.22812372e-01, 3.49394053e-01, 2.82562464e-01, 7.55957738e-02,
          8.37768614e-02, 1.00899011e-01, 6.34440407e-02, 7.47224540e-02,
          2.15848342e-01, 4.22812372e-01, 9.98170525e-02, 4.53992374e-02,
          6.31578341e-02, 2.41849273e-02, 1.49844900e-01, 3.86658497e-02,
          7.25036040e-02, 4.15534489e-02, 1.20539211e-01, 1.10691883e-01,
          5.02533652e-02, 4.74425592e-02, 3.41609828e-02, 1.08208925e-01,
          4.81009968e-02, 8.85428414e-02, 4.93942760e-02, 1.10769399e-01,
          1.21136978e-01, 5.52884527e-02, 6.31495044e-02, 3.96670364e-02,
          1.64814636e-01, 5.13686985e-02, 1.01694807e-01, 1.30250558e-01,
          1.51268378e-01, 1.22643284e-01, 8.99748132e-02, 1.13043293e-01,
          3.12741697e-02, 1.68867990e-01, 5.07360809e-02, 1.35732308e-01,
          1.27155781e-01, 1.69686064e-01, 3.53734434e-01, 2.53858417e-01,
          2.36857057e-01, 1.19320422e-01, 1.40670240e-01, 3.52457576e-02,
          5.25712110e-02, 1.09015428e-01, 2.19801754e-01, 3.97718072e-01,
          1.63277760e-01, 1.68550685e-01, 5.53517789e-02, 9.37205032e-02,
          1.88551713e-02, 7.41878226e-02, 1.68333873e-01, 3.97718072e-01,
          1.14557110e-01, 4.07317951e-02, 5.52118644e-02, 2.43460443e-02,
          1.50195032e-01, 4.85184602e-02, 1.39273182e-01, 9.45476592e-02,
          1.46480650e-01, 1.94956273e-01, 6.61608726e-02, 3.95325981e-02,
          8.92066881e-02, 1.46631792e-01, 6.10097460e-02, 8.28545690e-02,
          8.47978890e-02, 1.73006564e-01, 3.87216747e-01, 6.30973727e-02,
          2.73759197e-02, 1.27565246e-02, 8.08379650e-02, 2.51844935e-02,
          9.51334313e-02, 2.09851339e-01, 3.87216747e-01, 3.71174127e-01,
          4.80260924e-02, 8.57973658e-03, 5.03582992e-02, 1.44683719e-01,
          8.95411372e-02, 1.40206173e-01, 2.75011003e-01, 3.87216747e-01 ]
      - [ 2.68625140e-01, 1.08056858e-01, 8.60455334e-02, 7.83135593e-02,
          1.58237830e-01, 5.05051166e-02, 1.52792335e-01, 2.12414876e-01,
          2.71509528e-01, 3.78725141e-01, 1.86776415e-01, 6.58368617e-02,
          1.65943392e-02, 1.37593180e-01, 3.91247198e-02, 1.02349393e-01,
          2.15677053e-01, 3.67600322e-01, 9.71201509e-02, 9.41665396e-02,
          1.52908698e-01, 9.66937989e-02, 1.71596393e-01, 1.30033314e-01,
          1.42100632e-01, 1.23678632e-01, 1.27486989e-01, 2.21178994e-01,
          1.54857948e-01, 9.28474218e-02, 2.36071218e-02, 1.78521648e-01,
          6.18306547e-02, 1.17920324e-01, 1.07877322e-01, 2.02773765e-01,
          3.48024637e-01, 1.38835028e-01, 7.49701411e-02, 2.64480002e-02,
          6.07708357e-02, 4.54472899e-02, 1.01305045e-01, 1.53077051e-01,
          3.32528114e-01, 3.11388671e-01, 1.65070415e-01, 1.89309329e-01,
          7.62561560e-02, 1.27504483e-01, 4.83473092e-02, 1.66049525e-01,
          2.16363907e-01, 3.34984422e-01, 2.47732729e-01, 1.55107155e-01,
          6.63446859e-02, 3.32886609e-03, 6.76793382e-02, 1.49134202e-02,
          4.73687500e-02, 8.98471549e-02, 2.53289133e-01, 1.93093956e-01,
          1.51512831e-01, 1.22538894e-01, 2.64375713e-02, 7.23600015e-02,
          7.47640245e-03, 7.13708252e-02, 1.34106800e-01, 2.35106006e-01,
          5.16172051e-02, 4.34678458e-02, 6.52666762e-02, 5.75704351e-02,
          1.07107125e-01, 6.52978942e-02, 4.42594886e-02, 7.49097541e-02,
          7.46444315e-02, 9.78911743e-02, 6.78593516e-02, 4.91243117e-02,
          3.37256603e-02, 1.09109640e-01, 5.93911000e-02, 6.47570267e-02,
          5.94123900e-02, 1.02608688e-01, 4.01628643e-01, 2.96355903e-01,
          1.24581501e-01, 6.73107877e-02, 1.38461679e-01, 9.75192562e-02,
          4.28252444e-02, 1.02631688e-01, 3.13054413e-01, 4.07371908e-01,
          1.96366265e-01, 4.20263596e-02, 3.83378789e-02, 1.36064202e-01,
          1.54812992e-01, 1.55216053e-01, 2.34509796e-01, 4.07371908e-01,
          9.40024629e-02, 6.17934987e-02, 4.20230180e-02, 3.71275702e-03,
          3.42485532e-02, 3.43470387e-02, 5.33940122e-02, 4.36284840e-02,
          9.63899270e-02, 9.45601910e-02, 9.11633745e-02, 5.86926080e-02,
          1.84210856e-02, 3.34897339e-02, 2.08915528e-02, 4.42888215e-02,
          6.57071173e-02, 9.76700857e-02, 4.16144341e-01, 9.40437540e-02,
          3.63251045e-02, 1.22745037e-02, 3.70730758e-02, 7.41900951e-02,
          1.02398328e-01, 2.07449317e-01, 4.16144341e-01, 4.16144341e-01,
          1.76412523e-01, 7.72835463e-02, 7.63168707e-02, 3.69588323e-02,
          4.28535454e-02, 9.93562490e-02, 3.27394068e-01, 4.16144341e-01,
          2.00819641e-01, 1.74023613e-01, 6.09369390e-02, 1.83357429e-02,
          1.99844409e-02, 1.86424628e-02, 8.53160303e-03, 1.42008951e-02,
          1.35268271e-01, 3.46739739e-01, 8.56879577e-02, 1.21161183e-02,
          1.60723161e-02, 2.59883609e-02, 3.06354575e-02, 3.76413986e-02,
          4.70849127e-02, 3.46739739e-01, 3.46739739e-01, 3.46739739e-01,
          1.19880334e-01, 1.81497950e-02, 1.06391767e-02, 7.15357810e-03,
          3.63085419e-03, 1.14172818e-02, 1.73020914e-01, 3.46739739e-01,
          3.46739739e-01, 1.93265546e-02, 2.83356272e-02, 2.35134456e-02,
          1.60873495e-02, 2.11614501e-02, 2.40680054e-02, 3.46739739e-01,
          2.93863803e-01, 1.70886572e-02, 1.88078976e-03, 7.46825663e-03,
          4.97331098e-03, 6.96465559e-03, 1.87514666e-02, 8.08441713e-02,
          3.51942331e-01, 1.74879178e-01, 3.71837951e-02, 9.88134462e-03,
          1.05881188e-02, 2.21938849e-03, 6.31519640e-03, 3.49653140e-02,
          1.93631992e-01, 3.51942331e-01, 3.51942331e-01, 4.60727066e-02,
          3.79188056e-03, 1.54729197e-02, 6.94650225e-03, 4.23522573e-03,
          1.92636512e-02, 1.24593087e-01, 3.51942331e-01, 2.44040444e-01,
          2.57135127e-02, 1.91060603e-02, 5.64031117e-03, 2.04181648e-03,
          1.94808915e-02, 9.67721194e-02, 3.51942331e-01, 3.51942331e-01,
          3.02679211e-01, 3.02679211e-01, 1.27724379e-01, 1.79659538e-02,
          1.94111886e-03, 2.54972512e-03, 4.83162177e-04, 3.47687257e-03,
          6.96690902e-02, 3.02679211e-01, 3.02679211e-01, 2.39105504e-02,
          9.89585835e-03, 3.31200426e-03, 5.68549149e-03, 2.50206748e-03,
          2.01122593e-02, 3.02679211e-01, 3.02679211e-01, 3.02679211e-01,
          2.26680472e-01, 1.72514301e-02, 1.07684638e-02, 9.31918621e-03,
          6.66018110e-04, 6.88449480e-04, 4.52684984e-02, 3.02679211e-01,
          3.02679211e-01, 3.84007879e-02, 1.71575714e-02, 1.08654890e-02,
          7.00726314e-03, 3.59852379e-03, 4.80450578e-02, 3.02679211e-01,
          3.25353235e-01, 7.25418776e-02, 5.30863972e-03, 1.20182792e-02,
          3.71471513e-03, 7.86824338e-03, 2.52341237e-02, 1.20550640e-01,
          3.25353235e-01, 1.27278149e-01, 1.49038890e-02, 1.20299337e-02,
          1.03335362e-02, 5.19733317e-03, 2.20635571e-02, 1.43310189e-01,
          3.25353235e-01, 3.25353235e-01, 3.05175841e-01, 7.87092224e-02,
          1.13212951e-02, 2.56639495e-02, 6.92424085e-03, 1.01143355e-02,
          3.67036052e-02, 2.51847416e-01, 3.25353235e-01, 4.48700637e-02,
          6.75273035e-03, 8.85761157e-03, 2.38318034e-02, 6.19720761e-03,
          3.49176303e-02, 1.68402150e-01, 3.25353235e-01, 3.25353235e-01,
          2.99759060e-01, 3.31345886e-01, 3.31345886e-01, 1.87609866e-02,
          1.45490132e-02, 1.08768009e-02, 2.26866244e-03, 1.74306775e-03,
          5.28064556e-02, 3.31345886e-01, 3.31345886e-01, 9.43729207e-02,
          2.10203622e-02, 1.70429200e-02, 4.68733767e-03, 9.84178111e-03,
          7.32434168e-02, 3.31345886e-01, 8.37360993e-02, 3.31345886e-01,
          3.31345886e-01, 1.24304593e-01, 6.29198253e-02, 1.68146100e-02,
          6.85086194e-03, 1.16421869e-02, 5.28703630e-02, 1.29881054e-01,
          2.13548407e-01, 9.50650722e-02, 4.25586812e-02, 2.56039631e-02,
          1.78695563e-02, 1.77681185e-02, 2.96936929e-02, 1.20526612e-01,
          3.19898963e-01, 8.63616839e-02, 2.51064934e-02, 3.65629084e-02,
          1.01170829e-02, 1.38365068e-02, 8.26607272e-02, 3.19898963e-01,
          3.19898963e-01, 5.22955991e-02, 4.47301194e-03, 1.94082614e-02,
          4.41506095e-02, 1.52405975e-02, 1.02044016e-01, 3.19898963e-01,
          3.19898963e-01, 3.19898963e-01, 1.10461034e-01, 9.88802686e-02,
          6.25642836e-02, 3.78467105e-02, 2.96389479e-02, 2.71008406e-02,
          6.83707520e-02, 9.74122956e-02, 1.81973353e-01, 7.71229193e-02,
          5.96282147e-02, 3.27367224e-02, 5.40505983e-02, 1.03226744e-01,
          1.66155055e-01, 3.19898963e-01, 2.95915365e-01, 1.80653542e-01,
          7.93857351e-02, 9.36599001e-02, 2.05705702e-01, 2.03251496e-01,
          2.26140335e-01, 1.47350833e-01, 3.53047475e-02, 6.55931830e-02,
          8.91968757e-02, 1.05549492e-01, 2.52672940e-01, 1.86413541e-01,
          1.56133533e-01, 6.45910278e-02, 6.15373887e-02, 4.13712971e-02,
          7.07212389e-02, 8.83206353e-02, 1.53690830e-01, 6.41675144e-02,
          8.00297633e-02, 9.72331241e-02, 1.97174415e-01, 2.57982194e-01,
          2.05678269e-01, 2.26125732e-01, 2.37499401e-01, 2.57982194e-01,
          2.57982194e-01, 2.57982194e-01, 1.79358587e-01, 7.04707876e-02,
          9.25433263e-02, 7.08632395e-02, 1.99918553e-01, 2.57982194e-01,
          5.62074594e-02, 2.31036320e-01, 1.87722579e-01, 1.71880767e-01,
          1.48391053e-01, 6.28376231e-02, 5.09251691e-02, 5.24653532e-02,
          6.87814876e-02, 5.06069101e-02, 1.02035992e-01, 8.27825069e-02,
          2.21130043e-01, 2.79696375e-01, 1.91300213e-01, 1.56467706e-01,
          8.13343003e-02, 1.02235548e-01, 9.21963081e-02, 2.79696375e-01,
          2.79696375e-01, 2.79696375e-01, 2.52046019e-01, 7.29345754e-02,
          5.93900718e-02, 5.85072674e-02, 1.00277804e-01, 2.97364015e-02,
          1.92011788e-01, 2.51139581e-01, 2.79696375e-01, 2.79696375e-01,
          1.37248173e-01, 5.95117360e-02, 4.26053815e-02, 6.49596974e-02,
          8.31040069e-02, 2.21636370e-02, 1.80757567e-02, 6.09933212e-03,
          1.91099513e-02, 1.74099058e-01, 3.09680432e-01, 2.44718939e-01,
          1.47798732e-01, 2.11661026e-01, 1.20908894e-01, 1.01029493e-01,
          2.71727722e-02, 1.45652229e-02, 2.13495940e-02, 7.36284405e-02,
          1.39045775e-01, 2.62873262e-01, 8.66396874e-02, 2.41220687e-02,
          1.05949203e-02, 1.35382393e-03, 3.03203939e-03, 8.48656595e-02,
          3.09680432e-01, 3.09680432e-01, 2.86328197e-01, 3.09680432e-01,
          1.34843722e-01, 2.73832045e-02, 1.72481732e-03, 2.94886366e-03,
          7.36845843e-03, 1.41558677e-01, 3.09680432e-01, 3.09680432e-01,
          1.34745404e-01, 1.77522510e-01, 1.23055659e-01, 9.07842368e-02,
          6.16897754e-02, 1.88229848e-02, 2.44872831e-02, 2.82860678e-02,
          1.37368470e-01, 6.27870560e-02, 3.18510830e-01, 3.18510830e-01,
          1.88851640e-01, 1.17425300e-01, 2.74997074e-02, 1.99627355e-02,
          1.22418106e-02, 5.62530123e-02, 3.18510830e-01, 3.18510830e-01,
          7.63223171e-02, 4.99962177e-03, 1.18608808e-03, 2.25710915e-03,
          1.53530315e-02, 1.28929362e-01, 3.18510830e-01, 3.18510830e-01,
          3.18510830e-01, 3.18510830e-01, 1.92588661e-02, 7.42155535e-04,
          2.16972572e-03, 8.05667788e-03, 2.76824310e-02, 7.71506950e-02,
          5.46239875e-02, 1.12885991e-02, 9.88848135e-03, 1.29329914e-03,
          6.86341897e-04, 2.65923012e-02, 1.60143688e-01, 3.32852691e-01,
          2.52805084e-01, 3.32852691e-01, 7.13369548e-02, 1.35889221e-02,
          1.69292570e-03, 2.98413011e-04, 8.55206419e-03, 5.09473272e-02,
          2.37509668e-01, 3.32852691e-01, 1.16936132e-01, 1.72331464e-02,
          7.52386125e-03, 1.14499955e-02, 1.48473762e-03, 1.76864564e-02,
          1.56309709e-01, 3.32852691e-01, 3.32852691e-01, 3.32852691e-01,
          4.14369814e-02, 9.94102377e-03, 4.41893749e-03, 3.80574400e-03,
          8.18477664e-03, 2.73901932e-02, 1.47422120e-01, 3.32852691e-01,
          3.15337211e-01, 2.70449936e-01, 3.35899442e-02, 7.72515684e-03,
          3.27885100e-05, 8.06382741e-05, 8.15594848e-03, 7.30545521e-02,
          3.15337211e-01, 2.87274510e-01, 3.15337211e-01, 1.54068112e-01,
          9.18539520e-03, 5.08725589e-06, 4.87502475e-05, 5.85199241e-03,
          1.82776339e-02, 5.02109341e-02, 3.15337211e-01, 2.27806717e-01,
          5.60668521e-02, 7.97910150e-03, 2.93557905e-03, 1.26351719e-03,
          5.74734434e-03, 3.97972800e-02, 3.15337211e-01, 3.15337211e-01,
          3.15337211e-01, 1.47035375e-01, 6.94495812e-03, 1.08547007e-04,
          1.61033496e-03, 5.44130616e-03, 1.87792983e-02, 1.81745976e-01,
          1.65223643e-01, 2.56769657e-02, 7.54428562e-03, 1.51997348e-02,
          3.30222538e-03, 1.56378485e-02, 8.29890296e-02, 2.84595549e-01,
          3.68589759e-01, 3.68589759e-01, 2.45821662e-02, 1.57076083e-02,
          5.88466041e-03, 1.48870461e-02, 7.03128101e-03, 1.12395408e-02,
          1.05592072e-01, 3.68589759e-01, 1.67449206e-01, 3.62549275e-02,
          8.36652890e-03, 7.85068609e-03, 1.34021947e-02, 6.39365148e-03,
          2.40177214e-02, 1.28671840e-01, 3.68589759e-01, 3.68589759e-01,
          2.72300672e-02, 1.90631337e-02, 7.06765940e-03, 1.08967815e-02,
          5.14429389e-03, 8.07785336e-03, 6.43934980e-02, 3.68589759e-01,
          3.33160073e-01, 1.50834560e-01, 7.05078170e-02, 1.66846029e-02,
          1.97941810e-02, 7.69706303e-03, 4.85808961e-03, 2.12705508e-02,
          3.33160073e-01, 3.33160073e-01, 3.33160073e-01, 1.34032220e-01,
          1.78433601e-02, 7.58366147e-03, 4.72169695e-03, 4.76193521e-03,
          1.60483066e-02, 3.07586044e-01, 3.33160073e-01, 5.13921641e-02,
          3.51714827e-02, 1.99029204e-02, 2.37331782e-02, 5.85291022e-03,
          1.15364920e-02, 4.08977158e-02, 3.33160073e-01, 3.16638708e-01,
          1.58864707e-01, 6.09727949e-02, 2.37152148e-02, 1.93153992e-02,
          8.35248921e-03, 1.01599684e-02, 2.37366594e-02, 2.25725695e-01,
          3.65102589e-01, 1.56495199e-01, 3.33705842e-02, 2.42649503e-02,
          1.56361088e-01, 2.57532764e-02, 4.97629717e-02, 1.48519740e-01,
          4.32101339e-01, 4.32101339e-01, 1.61181316e-01, 7.12442771e-02,
          5.64025119e-02, 1.02054410e-01, 2.85251383e-02, 4.53747548e-02,
          1.99569896e-01, 4.32101339e-01, 8.40418339e-02, 7.42432028e-02,
          6.62423745e-02, 4.56572808e-02, 1.75233394e-01, 3.52577008e-02,
          8.03762749e-02, 5.49635515e-02, 6.68915361e-02, 9.05972943e-02,
          9.95871052e-02, 6.78203106e-02, 4.30955738e-02, 1.81793883e-01,
          2.04920396e-02, 6.52319938e-02, 8.23715851e-02, 7.07987621e-02,
          4.00379896e-01, 1.05765872e-01, 7.66220838e-02, 5.38899787e-02,
          1.05762824e-01, 1.35742398e-02, 7.04744756e-02, 2.47913346e-01,
          4.00379896e-01, 4.00379896e-01, 1.89522505e-01, 8.94820020e-02,
          5.05350344e-02, 1.04692958e-01, 5.57428300e-02, 9.51805040e-02,
          1.32996842e-01, 3.66170913e-01, 1.47798970e-01, 7.98876733e-02,
          5.94653785e-02, 1.52953314e-02, 1.66374937e-01, 2.23793574e-02,
          7.04217479e-02, 8.42198059e-02, 1.36892796e-01, 1.75750926e-01,
          9.61158350e-02, 8.71835127e-02, 1.68223977e-02, 1.29236832e-01,
          3.26531865e-02, 1.05917834e-01, 5.63131124e-02, 1.57524779e-01,
          1.52221218e-01, 1.17162168e-01, 1.42341763e-01, 8.80211070e-02,
          1.18332855e-01, 4.69726361e-02, 7.93451220e-02, 7.27937445e-02,
          1.34095281e-01, 1.17700264e-01, 1.63049772e-01, 1.62870482e-01,
          8.71481299e-02, 1.69458672e-01, 2.76180226e-02, 8.78673643e-02,
          1.34352863e-01, 1.10657305e-01, 3.64084631e-01, 2.54284292e-01,
          1.80685118e-01, 5.63112721e-02, 7.79577717e-02, 1.11590084e-02,
          1.35271056e-02, 5.41526042e-02, 2.63744593e-01, 3.11789274e-01,
          2.55606264e-01, 1.83481634e-01, 6.97777793e-02, 7.48909488e-02,
          2.32404117e-02, 5.35423607e-02, 3.12634528e-01, 3.51863354e-01,
          1.47279069e-01, 1.24790885e-01, 1.02114119e-01, 2.86023412e-02,
          1.89236045e-01, 4.45483774e-02, 1.04725525e-01, 8.07519332e-02,
          1.42189890e-01, 2.23935351e-01, 1.72513887e-01, 1.47192448e-01,
          3.27411480e-02, 1.47160649e-01, 3.51769663e-02, 1.14049673e-01,
          5.71836792e-02, 1.95667148e-01, 3.25601012e-01, 1.44021258e-01,
          8.59569311e-02, 2.72808503e-02, 6.56058416e-02, 2.50474550e-02,
          9.19855088e-02, 2.46165648e-01, 3.68456453e-01, 3.68456453e-01,
          9.23382044e-02, 6.99621290e-02, 1.23662325e-02, 7.73532391e-02,
          1.53113045e-02, 1.54290840e-01, 1.80130064e-01, 3.68456453e-01 ]
      - [ 2.21386492e-01, 7.03945756e-02, 5.93286417e-02, 1.84397064e-02,
          1.11188971e-01, 4.13520858e-02, 1.33691281e-01, 2.39533618e-01,
          3.69692326e-01, 2.57787526e-01, 2.36521080e-01, 1.25627890e-01,
          5.34478538e-02, 1.23708151e-01, 2.54658479e-02, 1.28306091e-01,
          2.60144889e-01, 3.19144517e-01, 2.30070218e-01, 1.24074653e-01,
          1.30330935e-01, 5.62377796e-02, 1.30884632e-01, 1.06998071e-01,
          1.30383983e-01, 8.28061774e-02, 2.04706818e-01, 2.27530643e-01,
          1.34306535e-01, 8.72056782e-02, 6.07954264e-02, 1.71319261e-01,
          8.89784917e-02, 1.33117557e-01, 9.95791629e-02, 2.01681480e-01,
          2.69716114e-01, 2.08102122e-01, 2.23764375e-01, 8.41846168e-02,
          1.72375560e-01, 5.09799942e-02, 7.90384114e-02, 1.28588483e-01,
          2.32732341e-01, 3.13781559e-01, 1.86809763e-01, 2.52176225e-01,
          1.18285432e-01, 2.19342783e-01, 1.36542574e-01, 6.68734536e-02,
          1.59172595e-01, 3.07504624e-01, 1.95318431e-01, 1.25227466e-01,
          6.42914400e-02, 5.13355210e-02, 1.80024192e-01, 4.55756150e-02,
          8.81192386e-02, 9.71264988e-02, 1.61806211e-01, 1.93783700e-01,
          1.47503614e-01, 1.75077662e-01, 7.88538232e-02, 1.76645502e-01,
          5.96313439e-02, 8.60910937e-02, 7.59296790e-02, 1.71020031e-01,
          1.09834470e-01, 1.05052657e-01, 6.49731383e-02, 2.66049113e-02,
          9.98763144e-02, 7.81375468e-02, 5.29451519e-02, 4.89854366e-02,
          7.80676305e-02, 1.17830828e-01, 1.40388623e-01, 4.74786758e-02,
          4.96076532e-02, 1.09719522e-01, 7.44799674e-02, 7.04955682e-02,
          6.32285476e-02, 7.49478638e-02, 3.86521071e-01, 3.32433611e-01,
          1.13309510e-01, 8.39420035e-02, 1.05991587e-01, 5.80203570e-02,
          6.73059896e-02, 5.24168313e-02, 2.09942162e-01, 3.86521071e-01,
          3.37670416e-01, 7.48647973e-02, 8.80668983e-02, 2.13417441e-01,
          1.00466035e-01, 1.25913799e-01, 1.63796619e-01, 3.86521071e-01,
          8.84382278e-02, 7.38368407e-02, 1.95909925e-02, 5.00257164e-02,
          9.90846902e-02, 5.47837988e-02, 5.43159619e-02, 4.85260002e-02,
          5.07037714e-02, 7.32987225e-02, 5.57408072e-02, 4.37200442e-02,
          7.04914704e-02, 1.51841223e-01, 6.14519902e-02, 4.52824607e-02,
          2.16236357e-02, 5.95440380e-02, 4.33892578e-01, 1.03938557e-01,
          3.03258356e-02, 5.97761460e-02, 1.24045156e-01, 7.81283528e-02,
          8.41760188e-02, 1.60295889e-01, 4.33892578e-01, 4.33892578e-01,
          9.43009332e-02, 6.13214113e-02, 6.57499582e-02, 1.41701370e-01,
          5.61531484e-02, 7.73611516e-02, 2.04312071e-01, 4.33892578e-01,
          2.58610278e-01, 1.94101587e-01, 4.21274751e-02, 1.30171319e-02,
          1.90485064e-02, 7.24574039e-03, 5.36202546e-03, 9.36880894e-03,
          8.50893781e-02, 3.45828652e-01, 1.09578483e-01, 2.83109415e-02,
          1.02039799e-02, 4.52258363e-02, 1.76823698e-02, 1.04856249e-02,
          4.31951322e-02, 3.45828652e-01, 3.45828652e-01, 3.45828652e-01,
          8.87486786e-02, 9.06027295e-03, 1.40654985e-02, 4.49261488e-03,
          6.48291642e-03, 1.69406626e-02, 1.17490202e-01, 3.45828652e-01,
          3.45828652e-01, 4.98569533e-02, 2.33218656e-03, 2.26243585e-02,
          1.03896912e-02, 3.05661559e-03, 4.91439290e-02, 3.45828652e-01,
          3.02641630e-01, 1.89495496e-02, 7.43815815e-03, 2.92548980e-03,
          1.33914277e-02, 6.03705458e-03, 7.52729969e-03, 5.25702126e-02,
          3.56211931e-01, 2.14092791e-01, 2.96000652e-02, 1.38477301e-02,
          1.66754692e-03, 8.86939652e-03, 5.44883637e-03, 3.82367373e-02,
          1.16014630e-01, 3.56211931e-01, 3.56211931e-01, 6.54808357e-02,
          1.59730352e-02, 6.74701645e-04, 4.66975663e-03, 4.07806411e-03,
          6.36630924e-03, 1.18478760e-01, 3.56211931e-01, 2.29469061e-01,
          2.52608806e-02, 2.25481261e-02, 9.84121725e-05, 7.34328618e-03,
          2.05815844e-02, 1.06850721e-01, 3.47365201e-01, 3.56211931e-01,
          3.03683728e-01, 3.03683728e-01, 1.26377150e-01, 9.96183883e-03,
          1.20472088e-02, 1.56099699e-03, 5.25398832e-03, 7.76210707e-03,
          5.12086749e-02, 3.03683728e-01, 3.03683728e-01, 4.10578214e-02,
          1.93000736e-03, 4.98944987e-03, 4.41174256e-03, 4.28807968e-03,
          4.46643531e-02, 3.03683728e-01, 3.03683728e-01, 3.03683728e-01,
          2.45945975e-01, 1.18755884e-02, 1.43666985e-02, 1.55575247e-03,
          1.06197130e-03, 1.83544203e-03, 2.89135166e-02, 3.03683728e-01,
          3.03683728e-01, 6.47340044e-02, 3.27416928e-03, 9.20007844e-03,
          5.67224063e-03, 9.50347632e-03, 5.38181067e-02, 2.74392754e-01,
          3.14261943e-01, 9.30258334e-02, 1.20535120e-02, 6.58966880e-03,
          1.11707894e-03, 6.72570011e-03, 3.21978815e-02, 1.74751267e-01,
          3.14261943e-01, 1.21317677e-01, 8.55029933e-03, 1.34935565e-02,
          5.19856764e-03, 1.97758595e-03, 2.17701439e-02, 1.53612137e-01,
          3.14261943e-01, 3.14261943e-01, 3.14261943e-01, 1.16741866e-01,
          2.73379479e-02, 1.07353553e-02, 6.06056955e-03, 8.78930371e-03,
          6.87326342e-02, 2.53367484e-01, 3.14261943e-01, 6.18462265e-02,
          7.99570885e-03, 1.75544266e-02, 1.11738918e-02, 1.08734500e-02,
          3.95928621e-02, 1.94176748e-01, 3.14261943e-01, 3.14261943e-01,
          2.68787116e-01, 3.31581533e-01, 3.31581533e-01, 3.39272246e-02,
          1.40215289e-02, 1.64948357e-03, 2.29353574e-03, 3.78656015e-03,
          3.85759436e-02, 3.31581533e-01, 3.31581533e-01, 1.23291731e-01,
          8.42245668e-03, 1.24932798e-02, 4.18759231e-03, 2.38894485e-02,
          6.39980733e-02, 3.25618535e-01, 8.47252533e-02, 3.31581533e-01,
          3.31581533e-01, 1.61113814e-01, 5.37047572e-02, 1.69527605e-02,
          6.52238727e-03, 2.02901475e-02, 5.02567962e-02, 1.44344196e-01,
          2.24384218e-01, 1.05636507e-01, 4.15432416e-02, 2.33053304e-02,
          2.29361318e-02, 1.98768880e-02, 3.90481278e-02, 9.70574692e-02,
          3.09221745e-01, 1.36969388e-01, 4.34720181e-02, 9.39182006e-03,
          1.84522923e-02, 1.31501155e-02, 1.22531891e-01, 3.09221745e-01,
          3.09221745e-01, 6.26587495e-02, 1.59052890e-02, 3.87858488e-02,
          1.91298556e-02, 2.93819401e-02, 1.20299131e-01, 3.09221745e-01,
          3.09221745e-01, 3.09221745e-01, 1.40280783e-01, 1.26722038e-01,
          7.83720538e-02, 2.46347953e-02, 4.81729060e-02, 2.33487934e-02,
          6.66522458e-02, 9.68998149e-02, 1.35138795e-01, 1.13700010e-01,
          7.03164712e-02, 5.93863092e-02, 5.79081960e-02, 1.58268899e-01,
          1.47180945e-01, 3.09221745e-01, 3.09221745e-01, 1.59388214e-01,
          8.87926146e-02, 1.17845900e-01, 2.38206953e-01, 2.51719475e-01,
          2.03965947e-01, 9.41715315e-02, 2.89242286e-02, 4.52853255e-02,
          8.97693485e-02, 1.17236622e-01, 2.59011298e-01, 2.59011298e-01,
          1.23601057e-01, 6.19851612e-02, 5.81455939e-02, 1.79883130e-02,
          4.84135263e-02, 1.08574413e-01, 1.41844332e-01, 8.34393948e-02,
          7.99648315e-02, 1.37469515e-01, 2.27823511e-01, 2.43203238e-01,
          2.16603920e-01, 1.57019168e-01, 2.45359659e-01, 2.59011298e-01,
          2.59011298e-01, 2.59011298e-01, 1.34478658e-01, 7.93580040e-02,
          6.74652532e-02, 5.75864352e-02, 1.15962692e-01, 2.59011298e-01,
          8.60438868e-02, 2.51333565e-01, 2.77117610e-01, 1.10581979e-01,
          1.81244075e-01, 7.20328391e-02, 2.76082661e-02, 1.53270448e-02,
          7.73903579e-02, 8.28176364e-02, 7.90060163e-02, 1.13770813e-01,
          1.79510295e-01, 2.77117610e-01, 1.85672909e-01, 1.21541828e-01,
          4.28969376e-02, 9.49151590e-02, 1.37742966e-01, 2.77117610e-01,
          2.77117610e-01, 2.07922086e-01, 2.74872184e-01, 9.56222937e-02,
          4.70869504e-02, 1.56005146e-02, 1.30417153e-01, 1.11042082e-01,
          1.36795625e-01, 2.14537859e-01, 2.77117610e-01, 2.77117610e-01,
          1.90731823e-01, 5.71837127e-02, 1.43713485e-02, 8.35405514e-02,
          8.37403759e-02, 2.00715661e-02, 1.52484644e-02, 1.67574417e-02,
          3.63187008e-02, 1.45612881e-01, 3.11098367e-01, 2.29989305e-01,
          1.67640164e-01, 2.12425187e-01, 1.30791113e-01, 1.04527861e-01,
          3.03099640e-02, 2.21995506e-02, 2.03471649e-02, 6.25699088e-02,
          1.26976416e-01, 2.73988008e-01, 8.50702822e-02, 8.91249534e-03,
          8.32403731e-03, 1.92588903e-02, 7.69069977e-03, 7.91990608e-02,
          3.11098367e-01, 3.11098367e-01, 3.11098367e-01, 3.11098367e-01,
          7.51071647e-02, 2.26020627e-02, 1.91188753e-02, 9.59396921e-03,
          2.47762501e-02, 1.28707379e-01, 3.11098367e-01, 3.11098367e-01,
          1.68150008e-01, 1.85577273e-01, 1.15121417e-01, 6.54960573e-02,
          7.17519745e-02, 3.09091564e-02, 2.79377606e-02, 1.51244076e-02,
          1.35580301e-01, 1.26504272e-01, 3.05954069e-01, 3.10741931e-01,
          1.75673947e-01, 1.29706711e-01, 5.27357049e-02, 2.06390526e-02,
          6.22063037e-03, 5.90375438e-02, 3.19846243e-01, 3.19846243e-01,
          4.00261506e-02, 1.29906936e-02, 1.70920324e-02, 1.62398759e-02,
          1.27795124e-02, 4.33539115e-02, 3.19846243e-01, 3.19846243e-01,
          3.19846243e-01, 3.19846243e-01, 6.83351979e-02, 9.90721583e-03,
          1.01189977e-02, 5.05451346e-03, 3.98169924e-03, 8.58721361e-02,
          4.29643244e-02, 5.98786864e-03, 3.10862716e-03, 8.32759775e-03,
          2.92430585e-03, 1.86278317e-02, 1.68581203e-01, 3.32170546e-01,
          2.64439076e-01, 2.97659159e-01, 5.75318374e-02, 1.03731882e-02,
          8.64626467e-03, 3.65155330e-03, 1.34412767e-02, 5.61076403e-02,
          2.41398990e-01, 3.32170546e-01, 7.94720948e-02, 1.75028685e-02,
          6.65493170e-03, 2.73569161e-03, 9.86976083e-03, 1.13608968e-02,
          1.61201239e-01, 3.32170546e-01, 3.32170546e-01, 3.32170546e-01,
          5.10351732e-02, 5.21990424e-03, 4.10344591e-03, 3.12557025e-03,
          9.12889931e-03, 2.77671963e-02, 2.09488809e-01, 3.32170546e-01,
          3.09982508e-01, 2.86291540e-01, 3.25641669e-02, 5.41145308e-03,
          8.30382388e-03, 1.17812678e-02, 3.88639863e-03, 4.21564430e-02,
          3.09982508e-01, 2.82618374e-01, 3.09982508e-01, 1.59507498e-01,
          1.66284535e-02, 5.30958176e-03, 5.84011152e-03, 8.46977462e-04,
          5.67977782e-03, 6.81762844e-02, 3.09982508e-01, 2.61642426e-01,
          4.31830436e-02, 2.52803601e-03, 2.21398450e-03, 8.47189780e-03,
          8.41513684e-04, 5.14628068e-02, 3.09982508e-01, 3.09982508e-01,
          3.09982508e-01, 1.25015736e-01, 8.05765390e-03, 3.13423434e-03,
          4.16395348e-03, 0., 5.85731119e-03, 2.00202942e-01,
          1.41124040e-01, 2.00564489e-02, 9.49345343e-03, 0.,
          1.61003321e-02, 1.62574872e-02, 8.47810730e-02, 2.89139986e-01,
          3.68324369e-01, 3.68324369e-01, 3.05177979e-02, 4.56467783e-03,
          2.34909658e-03, 5.37700625e-03, 2.32004561e-02, 1.51755791e-02,
          1.36392474e-01, 3.68324369e-01, 1.81489766e-01, 2.66178790e-02,
          1.05079878e-02, 3.17495142e-04, 1.21519761e-02, 1.07342983e-02,
          1.69406869e-02, 1.09161653e-01, 3.68324369e-01, 3.68324369e-01,
          2.57243104e-02, 5.62270638e-03, 1.76626048e-03, 2.37717270e-03,
          1.07928487e-02, 8.63701291e-03, 5.60919680e-02, 3.68324369e-01,
          3.33327025e-01, 1.82802588e-01, 3.82806100e-02, 1.25390273e-02,
          9.88280680e-03, 1.50706163e-02, 6.36839075e-03, 2.82013547e-02,
          3.33327025e-01, 3.33327025e-01, 3.33327025e-01, 9.19374526e-02,
          2.25658603e-02, 8.85990728e-03, 2.92986142e-03, 3.36877420e-03,
          4.67078388e-03, 3.16422075e-01, 3.33327025e-01, 6.39564097e-02,
          1.70242041e-02, 1.42425587e-02, 8.51806626e-03, 6.97657326e-03,
          9.43618640e-03, 3.85408066e-02, 3.33327025e-01, 2.48292953e-01,
          2.05814928e-01, 4.47005294e-02, 2.90265940e-02, 1.52806761e-02,
          3.72988754e-03, 7.89509155e-03, 1.57695711e-02, 2.66338289e-01,
          4.44864839e-01, 1.40075862e-01, 3.71671543e-02, 8.19633994e-03,
          4.86445911e-02, 1.84984561e-02, 3.93385515e-02, 1.30519927e-01,
          4.44864839e-01, 4.44864839e-01, 1.04924433e-01, 3.80189307e-02,
          1.82795543e-02, 3.82173471e-02, 2.20824033e-02, 1.01388469e-01,
          1.79495528e-01, 4.44864839e-01, 5.85473403e-02, 3.67147923e-02,
          4.20477539e-02, 1.49523634e-02, 1.34596646e-01, 3.27337943e-02,
          7.34568015e-02, 3.38722244e-02, 5.41645624e-02, 7.77097493e-02,
          3.32833566e-02, 5.32425381e-02, 4.67477702e-02, 1.22748904e-01,
          7.22476915e-02, 1.31486416e-01, 9.91108939e-02, 9.66616720e-02,
          4.24943924e-01, 1.26163125e-01, 4.31162491e-02, 3.15367691e-02,
          5.18978350e-02, 1.09805074e-02, 8.95674974e-02, 1.79268897e-01,
          4.24943924e-01, 3.42226654e-01, 2.65527070e-01, 1.01421416e-01,
          1.10205464e-01, 8.69704187e-02, 2.83881389e-02, 4.87729609e-02,
          9.03626606e-02, 4.24943924e-01, 9.60306600e-02, 3.41860391e-02,
          3.96532081e-02, 4.40918021e-02, 1.63515076e-01, 5.84197119e-02,
          1.13619737e-01, 7.75678679e-02, 1.17400415e-01, 1.35213166e-01,
          9.40562114e-02, 9.26092416e-02, 1.02696545e-01, 1.33099154e-01,
          3.66349444e-02, 7.76406080e-02, 3.52520645e-02, 1.18164822e-01,
          8.70468915e-02, 5.30683994e-02, 8.48915651e-02, 2.35958900e-02,
          1.93597749e-01, 4.54425178e-02, 7.03696385e-02, 4.43781018e-02,
          8.65304843e-02, 1.16519853e-01, 6.50998652e-02, 9.67420563e-02,
          5.33787385e-02, 1.45425960e-01, 5.31314425e-02, 8.41418877e-02,
          1.30526885e-01, 1.33311674e-01, 3.65631670e-01, 3.65631670e-01,
          1.30379096e-01, 4.13812175e-02, 1.05567858e-01, 5.70415659e-03,
          2.19363999e-02, 6.90061823e-02, 2.05150411e-01, 3.65631670e-01,
          3.62476498e-01, 1.19531706e-01, 3.58564742e-02, 8.83569345e-02,
          1.03384843e-02, 8.19079131e-02, 2.34100044e-01, 3.65631670e-01,
          1.18333161e-01, 5.18609993e-02, 6.21131770e-02, 5.36448210e-02,
          1.60678878e-01, 4.99507301e-02, 1.19653493e-01, 1.55238792e-01,
          1.24740034e-01, 1.99777380e-01, 1.63498878e-01, 1.03006311e-01,
          7.75814727e-02, 1.66418999e-01, 1.60626788e-02, 1.08331375e-01,
          7.07133040e-02, 1.30432695e-01, 2.91850209e-01, 1.78475410e-01,
          7.16480687e-02, 2.13682950e-02, 8.25050548e-02, 1.87368616e-02,
          1.96250722e-01, 2.87106037e-01, 3.49549025e-01, 3.36054564e-01,
          3.03473294e-01, 6.91049099e-02, 2.13472396e-02, 1.12301983e-01,
          2.16535442e-02, 1.52186006e-01, 2.06903785e-01, 2.89135486e-01 ]
      - [ 1.56631500e-01, 1.29455581e-01, 1.17869787e-01, 5.39451241e-02,
          1.37295187e-01, 9.88759920e-02, 1.78666666e-01, 2.05616847e-01,
          2.31715992e-01, 2.50038147e-01, 2.03709587e-01, 1.99241281e-01,
          3.66878361e-02, 1.57616869e-01, 1.31425023e-01, 1.45604327e-01,
          2.03701675e-01, 1.87337324e-01, 1.61466405e-01, 1.20826177e-01,
          2.05534652e-01, 3.72527950e-02, 1.68057814e-01, 1.06004387e-01,
          1.29336998e-01, 1.64931595e-01, 2.25207984e-01, 1.89060882e-01,
          1.18284613e-01, 2.03013092e-01, 6.53692186e-02, 2.27591082e-01,
          1.45611301e-01, 1.17937595e-01, 1.89021081e-01, 2.45854944e-01,
          2.69453228e-01, 2.76153386e-01, 1.85843527e-01, 1.84201654e-02,
          1.36021078e-01, 6.62480220e-02, 1.04823418e-01, 1.22311264e-01,
          1.59589067e-01, 2.55029827e-01, 3.00954193e-01, 1.36973724e-01,
          7.55155608e-02, 2.24170044e-01, 7.26380497e-02, 1.65400416e-01,
          1.99348554e-01, 1.95481554e-01, 2.22938702e-01, 1.89546943e-01,
          1.55700251e-01, 5.94533533e-02, 1.64922148e-01, 4.14041579e-02,
          7.04954192e-02, 1.08456038e-01, 1.49486780e-01, 2.36519426e-01,
          1.93885058e-01, 1.31194010e-01, 3.63089852e-02, 2.21198037e-01,
          1.59034543e-02, 8.10980499e-02, 1.22227289e-01, 1.82807937e-01,
          7.21609592e-02, 3.18008140e-02, 6.97044507e-02, 4.63281460e-02,
          9.42893624e-02, 9.98242721e-02, 7.44173080e-02, 6.65854067e-02,
          8.19911286e-02, 9.11228135e-02, 3.30332369e-02, 7.35685304e-02,
          5.47501780e-02, 1.29411876e-01, 5.43281026e-02, 7.52600953e-02,
          1.00117691e-01, 1.26438454e-01, 4.44289207e-01, 2.50796705e-01,
          4.77806590e-02, 8.10868368e-02, 1.10269576e-01, 1.11641549e-01,
          8.99227709e-02, 5.49908467e-02, 2.96515763e-01, 4.48687464e-01,
          1.79735035e-01, 3.46982554e-02, 5.19879125e-02, 1.27507418e-01,
          9.65630487e-02, 9.80361700e-02, 1.03521213e-01, 4.48687464e-01,
          7.56250173e-02, 5.68584241e-02, 3.94955501e-02, 3.00375652e-02,
          7.81953558e-02, 1.82664692e-02, 5.38829118e-02, 8.87200385e-02,
          8.13080445e-02, 8.42122808e-02, 8.21018144e-02, 4.15077433e-02,
          1.45058790e-02, 6.79822937e-02, 2.32594227e-03, 4.58282270e-02,
          6.77382648e-02, 7.33916909e-02, 4.41369027e-01, 8.94056484e-02,
          1.37351844e-02, 1.15455231e-02, 6.26527146e-02, 3.26206088e-02,
          7.49629065e-02, 1.61160871e-01, 4.41369027e-01, 3.70476604e-01,
          1.97966114e-01, 2.26186607e-02, 2.31425315e-02, 5.04507646e-02,
          2.88515864e-03, 8.29148889e-02, 3.34124953e-01, 4.41369027e-01,
          2.22810447e-01, 2.02872917e-01, 2.28134207e-02, 2.08843686e-02,
          1.85238291e-02, 1.56223541e-02, 4.76703374e-03, 1.05801774e-02,
          1.14754654e-01, 3.46520275e-01, 1.02185778e-01, 1.93494782e-02,
          1.64009519e-02, 2.12477688e-02, 3.97984050e-02, 4.09010379e-03,
          2.03843601e-02, 3.46520275e-01, 3.46520275e-01, 3.46520275e-01,
          8.72108787e-02, 2.57683229e-02, 1.32689979e-02, 1.11122886e-02,
          8.56270723e-04, 1.26696881e-02, 1.52572289e-01, 3.46520275e-01,
          3.46520275e-01, 4.65417728e-02, 1.98681708e-02, 1.36424955e-02,
          3.09098065e-02, 7.57516478e-04, 3.30117829e-02, 3.46520275e-01,
          2.92661995e-01, 2.57232394e-02, 6.44840347e-03, 2.78022373e-03,
          4.71945014e-03, 1.01649240e-02, 5.39304363e-03, 5.77144213e-02,
          3.51409972e-01, 1.77505150e-01, 4.75497209e-02, 5.58595313e-03,
          1.48632633e-03, 6.15147362e-03, 3.18825198e-03, 2.98362337e-02,
          1.78955600e-01, 3.51409972e-01, 3.51409972e-01, 7.56834373e-02,
          1.23001542e-02, 4.46151244e-03, 3.02991830e-03, 7.95596279e-03,
          4.93229087e-03, 1.36385053e-01, 3.51409972e-01, 2.49658853e-01,
          3.68156210e-02, 1.24815926e-02, 2.76517560e-04, 1.51085882e-02,
          1.14436895e-02, 1.00721955e-01, 3.51409972e-01, 3.51409972e-01,
          3.03231537e-01, 3.03231537e-01, 1.25213429e-01, 1.86252668e-02,
          5.68266073e-03, 3.17171402e-03, 1.59571122e-03, 4.13015485e-03,
          5.89589253e-02, 3.03231537e-01, 3.03231537e-01, 2.54119802e-02,
          6.85961870e-03, 1.34282326e-03, 4.77568293e-03, 1.34334425e-02,
          3.72547358e-02, 3.03231537e-01, 3.03231537e-01, 3.03231537e-01,
          2.38850445e-01, 3.15027311e-02, 7.71767320e-03, 4.08099033e-03,
          2.33792397e-03, 2.65773106e-03, 2.37987489e-02, 3.03231537e-01,
          3.03231537e-01, 5.15221506e-02, 1.29448045e-02, 2.76876241e-03,
          9.48496629e-03, 2.23699342e-02, 5.62226512e-02, 2.86876768e-01,
          3.14617962e-01, 8.57481137e-02, 1.12415468e-02, 9.35906603e-04,
          6.53261493e-04, 6.75077690e-03, 3.32657732e-02, 1.66149154e-01,
          3.14617962e-01, 1.45545676e-01, 2.11372245e-02, 1.20072933e-02,
          5.86057664e-04, 1.08216675e-02, 1.37166874e-02, 1.52395263e-01,
          3.14617962e-01, 3.14617962e-01, 3.14617962e-01, 1.05388232e-01,
          2.23953724e-02, 4.14779782e-03, 1.09750032e-03, 1.65519528e-02,
          6.69157431e-02, 2.48742014e-01, 3.14617962e-01, 7.93998763e-02,
          1.82191171e-02, 1.60926376e-02, 8.90747644e-03, 7.82132614e-03,
          1.98934954e-02, 1.94308192e-01, 3.14617962e-01, 3.14617962e-01,
          2.85733551e-01, 3.28202367e-01, 3.28202367e-01, 8.82720649e-02,
          1.29558733e-02, 2.40526767e-03, 3.58454813e-03, 3.71618150e-03,
          3.40158790e-02, 3.28202367e-01, 3.28202367e-01, 1.15300909e-01,
          2.44345069e-02, 6.58674631e-03, 8.32724851e-03, 2.35219691e-02,
          6.44801334e-02, 3.28202367e-01, 8.26095790e-02, 3.26952934e-01,
          3.28202367e-01, 1.74920946e-01, 8.16692710e-02, 1.16708511e-02,
          8.74070916e-03, 1.73677728e-02, 3.79835255e-02, 1.39154583e-01,
          2.20886305e-01, 9.81948897e-02, 4.43691276e-02, 2.65461206e-02,
          1.63169689e-02, 1.81900635e-02, 3.85833681e-02, 7.35452175e-02,
          3.20123702e-01, 1.38925061e-01, 3.53522711e-02, 1.11387018e-02,
          4.45607444e-03, 1.81853268e-02, 9.81871188e-02, 3.20123702e-01,
          3.20123702e-01, 8.86415616e-02, 3.41190100e-02, 2.82705817e-02,
          2.15655770e-02, 1.33096911e-02, 4.38903719e-02, 3.20123702e-01,
          3.20123702e-01, 3.20123702e-01, 1.29177064e-01, 1.69667110e-01,
          1.12115398e-01, 2.45505609e-02, 3.89922373e-02, 3.13010067e-02,
          5.14896140e-02, 8.72411802e-02, 1.34693071e-01, 9.76840630e-02,
          1.09361000e-01, 8.86082277e-02, 7.17063174e-02, 1.41559973e-01,
          1.56593636e-01, 3.20123702e-01, 2.24444255e-01, 1.31948858e-01,
          6.47901818e-02, 8.94396901e-02, 1.68975741e-01, 2.52694517e-01,
          2.52694517e-01, 8.73451233e-02, 3.10074687e-02, 5.48149571e-02,
          7.50360414e-02, 7.87445903e-02, 2.35004321e-01, 2.52694517e-01,
          1.79518387e-01, 6.67965412e-02, 5.90428449e-02, 2.46898141e-02,
          6.04952574e-02, 1.23255894e-01, 1.14752293e-01, 3.71807665e-02,
          3.87468822e-02, 1.53948024e-01, 2.52694517e-01, 2.52694517e-01,
          1.75483927e-01, 1.72033697e-01, 2.52694517e-01, 2.52694517e-01,
          2.52694517e-01, 2.52694517e-01, 2.17406750e-01, 6.95351437e-02,
          8.42684954e-02, 5.05921170e-02, 1.34113371e-01, 2.52694517e-01,
          5.48212454e-02, 2.71456003e-01, 2.72561103e-01, 1.18448339e-01,
          1.39035717e-01, 1.10397957e-01, 1.90181360e-02, 2.39523537e-02,
          9.70223695e-02, 7.09670857e-02, 1.14325345e-01, 1.38340548e-01,
          1.41448691e-01, 2.72561103e-01, 2.35521793e-01, 1.03400558e-01,
          3.98766063e-02, 9.63182971e-02, 1.51416019e-01, 2.72561103e-01,
          2.72561103e-01, 2.07331330e-01, 2.00898275e-01, 1.55259907e-01,
          3.72792035e-02, 3.28652188e-02, 1.45955116e-01, 1.51428655e-01,
          1.13762990e-01, 2.15573177e-01, 2.48321652e-01, 2.72561103e-01,
          2.31865838e-01, 3.91638875e-02, 2.09946856e-02, 7.11286813e-02,
          6.80625886e-02, 1.06488038e-02, 1.61679946e-02, 1.10486308e-02,
          4.02342342e-02, 2.04870462e-01, 2.70857602e-01, 2.90368468e-01,
          1.69973165e-01, 1.91918477e-01, 9.54162702e-02, 8.52579251e-02,
          3.97774391e-02, 1.18765803e-02, 2.71111503e-02, 5.51176295e-02,
          1.35897443e-01, 2.96014160e-01, 6.45636395e-02, 2.41363645e-02,
          4.72364761e-03, 1.19309658e-02, 2.63106870e-03, 9.23416093e-02,
          3.12164336e-01, 3.12164336e-01, 2.62573868e-01, 3.12164336e-01,
          8.68928134e-02, 2.25950256e-02, 2.15452164e-02, 2.45939405e-03,
          8.84567760e-03, 1.36237040e-01, 3.12164336e-01, 3.12164336e-01,
          1.79336235e-01, 1.54257059e-01, 1.22791536e-01, 6.13445491e-02,
          4.63988446e-02, 4.12981212e-02, 2.90597174e-02, 3.76289189e-02,
          1.39427349e-01, 1.49116114e-01, 2.73151785e-01, 3.28207821e-01,
          1.47853240e-01, 1.19105048e-01, 5.23396917e-02, 2.23907270e-02,
          1.97556764e-02, 4.36074883e-02, 3.28207821e-01, 3.28207821e-01,
          6.59386143e-02, 2.39659902e-02, 9.42980871e-04, 2.46480806e-03,
          3.16012353e-02, 8.43425617e-02, 3.28207821e-01, 2.86619157e-01,
          3.28207821e-01, 3.28207821e-01, 4.42235507e-02, 3.93348135e-04,
